{
    "adaptec1": {
        "RePlAce_LOWER_PCOF": [
            0.98928892,
            0.9806351,
            0.93671245,
            0.9192138,
            0.9402126,
            0.90556814,
            0.97195873,
            0.97915971,
            0.92211009,
            0.91511076,
            0.91879441,
            0.92185678,
            0.92438039,
            0.91460874,
            0.91212812,
            0.91686355,
            0.91961928,
            0.91784482,
            0.9248568,
            0.93016019,
            0.92591082,
            0.92692617,
            0.91997677,
            0.92991562,
            0.9300289,
            0.93035428,
            0.93178108,
            0.92917581,
            0.92767539,
            0.92839172,
            0.92932483,
            0.9295612,
            0.92952798,
            0.93019833,
            0.92988472,
            0.92951683,
            0.92977163,
            0.92929812,
            0.92932391,
            0.93026412,
            0.92911954,
            0.92915748,
            0.92936118,
            0.92929251,
            0.92597486,
            0.92908626,
            0.92465825,
            0.92932649,
            0.92978639,
            0.92883626,
            0.92503247,
            0.92914807,
            0.92952266,
            0.92973607,
            0.92932627,
            0.929542,
            0.92897041,
            0.92887687,
            0.92871376,
            0.92914527,
            0.92868361,
            0.92857836,
            0.92892655,
            0.92939318,
            0.92488532,
            0.92888183,
            0.92969445,
            0.92937047,
            0.93326248,
            0.9242438,
            0.90656309,
            0.9059847,
            0.90480562,
            0.93729067,
            0.93102425,
            0.97909201,
            0.90558287,
            0.90482582,
            0.90972594,
            0.90535807,
            0.90792541,
            0.9035425,
            0.90201668,
            0.91072437,
            0.90597355,
            0.90522169,
            0.90543003,
            0.90610601,
            0.90507877,
            0.91081124,
            0.90386059,
            0.91048835,
            0.90868566,
            0.95252422,
            0.91049835,
            0.90795208,
            0.91051188,
            0.90925975,
            0.91165314,
            0.91039001
        ],
        "RePlAce_UPPER_PCOF": [
            1.0650262,
            1.12800243,
            1.1203011,
            1.02797657,
            1.12905239,
            1.0235894,
            1.11668949,
            1.12175906,
            1.04881902,
            1.0670207,
            1.04723826,
            1.05759955,
            1.05418923,
            1.05386554,
            1.05370082,
            1.04966733,
            1.05720608,
            1.04899378,
            1.05453569,
            1.05699452,
            1.0576329,
            1.05462441,
            1.05582699,
            1.05253235,
            1.04846059,
            1.05526035,
            1.0573652,
            1.05486643,
            1.05413941,
            1.05059558,
            1.05265675,
            1.05244946,
            1.0523778,
            1.05329877,
            1.05210184,
            1.05188256,
            1.05372687,
            1.05237641,
            1.0512168,
            1.05001735,
            1.05370976,
            1.05071065,
            1.05204985,
            1.05152811,
            1.05486043,
            1.05115356,
            1.05556136,
            1.05321415,
            1.05263145,
            1.05160264,
            1.05410919,
            1.0497908,
            1.05104424,
            1.05041456,
            1.05116791,
            1.05210365,
            1.05257125,
            1.05117793,
            1.05095418,
            1.05105002,
            1.05125995,
            1.05181642,
            1.05319881,
            1.04980733,
            1.05439809,
            1.05147239,
            1.05195791,
            1.05264546,
            1.09779877,
            1.05463844,
            1.03845984,
            1.03766449,
            1.04014367,
            1.0495447,
            1.04777092,
            1.02607624,
            1.0373914,
            1.03976308,
            1.04464906,
            1.040984,
            1.0408961,
            1.04327371,
            1.03558123,
            1.03824115,
            1.03373025,
            1.03949659,
            1.03936601,
            1.03677246,
            1.03904111,
            1.03899205,
            1.03792754,
            1.04034614,
            1.03708366,
            1.13033935,
            1.03838172,
            1.03639799,
            1.03726944,
            1.03652141,
            1.03672594,
            1.03412485
        ],
        "density_weight": [
            -2.17008714,
            -2.45226449,
            -4.64329568,
            -3.82420444,
            -5.10633443,
            -5.56017755,
            -3.81458037,
            -3.67992888,
            -5.33440055,
            -2.68811767,
            -5.41684721,
            -5.58199223,
            -5.82410251,
            -4.62818681,
            -2.941056,
            -2.53846517,
            -3.37807429,
            -3.41024444,
            -3.38675945,
            -3.33972098,
            -3.43061446,
            -3.3755018,
            -3.3855735,
            -3.39884124,
            -3.43669339,
            -3.4048051,
            -3.34235109,
            -3.41045028,
            -3.39802588,
            -3.37817382,
            -3.37430832,
            -3.37544038,
            -3.41436529,
            -3.36356578,
            -3.37166463,
            -3.42227824,
            -3.38711918,
            -3.41596769,
            -3.35241574,
            -3.3673985,
            -3.4161023,
            -3.37600741,
            -3.34535119,
            -3.37840238,
            -3.36125973,
            -3.33369973,
            -3.398303,
            -3.37290222,
            -3.40261244,
            -3.33288122,
            -3.36170471,
            -3.31889316,
            -3.35528439,
            -3.39752034,
            -3.36200501,
            -3.40554676,
            -3.31765544,
            -3.37293487,
            -3.38518696,
            -3.34794771,
            -3.35621621,
            -3.34463997,
            -3.373542,
            -3.3728425,
            -3.40154464,
            -3.35511051,
            -3.34630218,
            -3.3125343,
            -2.19755305,
            -3.3598204,
            -5.85012296,
            -5.80056983,
            -5.79468539,
            -2.68749175,
            -3.57863427,
            -2.38661629,
            -4.46924821,
            -4.5595004,
            -4.72826133,
            -4.42025804,
            -3.45238196,
            -4.91108092,
            -4.70165209,
            -4.7514761,
            -4.33894815,
            -4.03633655,
            -4.85751188,
            -4.89615118,
            -4.53348872,
            -4.68034185,
            -4.80193109,
            -4.91795247,
            -4.70784859,
            -5.38970778,
            -4.7667841,
            -4.68686287,
            -4.73902016,
            -4.73252855,
            -4.79599399,
            -4.71365735
        ],
        "gamma": [
            3.34089088,
            1.38035617,
            1.120628,
            1.51188897,
            2.09863759,
            1.5808747,
            1.65620336,
            4.41056058,
            4.84965696,
            1.69956982,
            4.78556478,
            4.75018312,
            4.75060097,
            4.77075985,
            4.48667656,
            4.82727839,
            3.80249538,
            3.80212936,
            3.93927662,
            3.98632324,
            3.74743183,
            3.740623,
            3.98559011,
            3.951707,
            3.84748803,
            3.97144858,
            3.97339851,
            3.99607294,
            3.9527174,
            4.04959925,
            3.90244446,
            3.92145923,
            3.94063657,
            3.96566481,
            3.94877524,
            3.91501939,
            3.95206138,
            3.94628731,
            3.94303031,
            3.9558593,
            3.96544174,
            3.9452307,
            3.95559203,
            3.95349387,
            3.92403627,
            3.93588138,
            3.98345965,
            3.96733946,
            3.93141371,
            3.93270425,
            3.95861598,
            3.93694607,
            3.94858766,
            3.98084047,
            3.92429454,
            3.91834365,
            3.96113885,
            3.94036999,
            3.93315994,
            3.9071945,
            3.94205058,
            3.96312204,
            3.91288428,
            3.93527834,
            3.94982968,
            3.97168561,
            3.94682646,
            3.93806861,
            4.69517256,
            3.89987657,
            3.90096316,
            3.9290678,
            3.95959617,
            3.96979247,
            3.91884871,
            3.18260428,
            3.92553065,
            3.95370321,
            3.92896042,
            3.94318805,
            3.90977814,
            3.90923946,
            3.96721016,
            3.98346356,
            3.9521482,
            3.92410503,
            3.94625225,
            3.96647814,
            3.98647852,
            3.97894556,
            3.91900505,
            3.97301793,
            3.94884611,
            4.48095294,
            4.0070046,
            3.97695288,
            3.9971723,
            3.9820824,
            4.0131075,
            3.94785335
        ],
        "learning_rate": [
            -2.85012075,
            -2.34604401,
            -3.96613633,
            -2.10530622,
            -2.35928074,
            -3.38128183,
            -3.13490908,
            -3.81544092,
            -2.31089265,
            -3.48441247,
            -2.31447017,
            -2.42141405,
            -2.32237357,
            -2.26023421,
            -2.46488072,
            -2.441433,
            -2.41450296,
            -2.36439976,
            -2.2098061,
            -2.05000594,
            -2.20233264,
            -2.1219381,
            -2.2103307,
            -2.20294469,
            -2.20981717,
            -2.17096668,
            -2.11613362,
            -2.1020336,
            -2.18493222,
            -2.10004842,
            -2.13458179,
            -2.1073957,
            -2.10743465,
            -2.16333237,
            -2.06103326,
            -2.14531874,
            -2.13215894,
            -2.20988514,
            -2.20100503,
            -2.22059353,
            -2.2021862,
            -2.19144598,
            -2.21377449,
            -2.19163768,
            -2.20744419,
            -2.21807361,
            -2.19434348,
            -2.20612166,
            -2.20518736,
            -2.21871489,
            -2.21291626,
            -2.20653524,
            -2.20635165,
            -2.2099493,
            -2.2182547,
            -2.22466986,
            -2.21384336,
            -2.22681947,
            -2.22098084,
            -2.21226322,
            -2.21896963,
            -2.20435467,
            -2.22636742,
            -2.21703394,
            -2.21144657,
            -2.22250485,
            -2.21230553,
            -2.21245964,
            -3.30438157,
            -2.20689857,
            -2.06352771,
            -2.06289166,
            -2.17884031,
            -2.22816114,
            -2.22567658,
            -2.4880087,
            -2.02915878,
            -2.04087109,
            -2.0260638,
            -2.01520735,
            -2.08123534,
            -2.06030406,
            -2.08904564,
            -2.02063048,
            -2.02577198,
            -2.10234574,
            -2.15347537,
            -2.08587821,
            -2.1441066,
            -2.04595408,
            -2.14433243,
            -2.02630485,
            -2.05178451,
            -3.82191766,
            -2.0580599,
            -2.059576,
            -2.07283478,
            -2.03146276,
            -2.04820223,
            -2.04738288
        ],
        "learning_rate_decay": [
            0.99772475,
            0.99887626,
            0.99719406,
            0.99966031,
            0.99630301,
            0.99744385,
            0.99968183,
            0.99629676,
            0.99781538,
            0.99975798,
            0.997807,
            0.99783228,
            0.99784596,
            0.99782812,
            0.99781806,
            0.9978421,
            0.99784419,
            0.99785325,
            0.99785252,
            0.9978809,
            0.9978792,
            0.99788509,
            0.99786781,
            0.99781348,
            0.99775934,
            0.99777999,
            0.99791956,
            0.9977974,
            0.99782452,
            0.99772882,
            0.99777862,
            0.99778336,
            0.99777778,
            0.99778212,
            0.99779729,
            0.9977638,
            0.9977787,
            0.99778243,
            0.99782445,
            0.99790475,
            0.99778375,
            0.99784966,
            0.99786864,
            0.99779862,
            0.9978588,
            0.99790134,
            0.99789941,
            0.99788352,
            0.99774981,
            0.99778543,
            0.99781407,
            0.99778128,
            0.99780309,
            0.99783683,
            0.99786041,
            0.99786983,
            0.99786633,
            0.99789026,
            0.99799006,
            0.99791766,
            0.99789595,
            0.99792092,
            0.99789921,
            0.9978652,
            0.99785699,
            0.99787298,
            0.99789998,
            0.99786772,
            0.9986391,
            0.99787976,
            0.99632096,
            0.99635965,
            0.99634375,
            0.99741052,
            0.99726515,
            0.99838216,
            0.99634317,
            0.99616983,
            0.99606459,
            0.99625571,
            0.99638095,
            0.99635432,
            0.99651128,
            0.9965088,
            0.9960365,
            0.99618874,
            0.99611645,
            0.99618565,
            0.99636646,
            0.99659509,
            0.99622573,
            0.99654828,
            0.99664829,
            0.99971968,
            0.99665583,
            0.99679704,
            0.99679281,
            0.99691478,
            0.99694617,
            0.99688712
        ],
        "loss": [
            73667550.0,
            93498900.0, Infinity,
            73036490.0,
            76578630.0,
            142304300.0,
            77983730.0, Infinity,
            72939620.0,
            74233070.0,
            72924420.0,
            72868240.0,
            72981840.0,
            72920660.0,
            72843030.0,
            72940510.0,
            72833650.0,
            72792110.0,
            72736780.0,
            72785010.0,
            72876760.0,
            72820050.0,
            72876620.0,
            72758690.0,
            72795600.0,
            72798660.0,
            72785200.0,
            72759690.0,
            72828850.0,
            72783470.0,
            72766670.0,
            72759010.0,
            72731580.0,
            72812460.0,
            72780790.0,
            72778470.0,
            72832970.0,
            72725960.0,
            72750640.0,
            72794730.0,
            72801780.0,
            72818060.0,
            72745570.0,
            72749810.0,
            72889640.0,
            72771430.0,
            72858220.0,
            72825060.0,
            72763580.0,
            72838440.0,
            72765150.0,
            72773740.0,
            72765090.0,
            72807780.0,
            72739700.0,
            72772200.0,
            72810670.0,
            72746420.0,
            72808860.0,
            72774760.0,
            72732340.0,
            72753580.0,
            72825290.0,
            72758340.0,
            72804400.0,
            72762320.0,
            72750030.0,
            72803690.0,
            74902940.0,
            72827250.0,
            72699420.0,
            72606870.0,
            72699620.0,
            72819940.0,
            72767820.0,
            72845810.0,
            72668180.0,
            72710160.0,
            72782340.0,
            72761780.0,
            72800110.0,
            72753780.0,
            72604410.0,
            72657940.0,
            72603860.0,
            72753440.0,
            72689340.0,
            72625940.0,
            72695920.0,
            72667390.0,
            72687870.0,
            72663810.0,
            72599740.0, Infinity,
            72636770.0,
            72587620.0,
            72613460.0,
            72633850.0,
            72623870.0,
            72649240.0
        ],
        "iter_time": [
            6.00814819e-05,
            6.10351562e-05,
            6.15119934e-05,
            6.22272491e-05,
            6.27040863e-05,
            6.22272491e-05,
            6.10351562e-05,
            6.22272491e-05,
            7.29560852e-05,
            6.41345978e-05,
            0.032343626,
            0.0270841122,
            0.0274834633,
            0.025706768,
            0.0232894421,
            0.0265338421,
            0.0274384022,
            0.0237851143,
            0.0318198204,
            0.0276381969,
            0.0247123241,
            0.0265264511,
            0.0314767361,
            0.0237560272,
            0.0254530907,
            0.0237600803,
            0.0239620209,
            0.026154995,
            0.0233230591,
            0.0240795612,
            0.0266547203,
            0.0281791687,
            0.0258526802,
            0.0244483948,
            0.0348536968,
            0.0256199837,
            0.0321810246,
            0.0334966183,
            0.0340969563,
            0.0386285782,
            0.0334265232,
            0.0298950672,
            0.0299162865,
            0.0318288803,
            0.0296976566,
            0.0304422379,
            0.0306963921,
            0.0254454613,
            0.0289442539,
            0.0272681713,
            0.0291728973,
            0.0267782211,
            0.0261030197,
            0.0286550522,
            0.0298573971,
            0.0263381004,
            0.0289461613,
            0.027712822,
            0.0310869217,
            0.0295670033,
            0.0273737907,
            0.0286793709,
            0.0286223888,
            0.0271918774,
            0.0259051323,
            0.026620388,
            0.0281887054,
            0.0287368298,
            8.15391541e-05,
            0.0285036564,
            0.0272421837,
            0.0267195702,
            0.0279204845,
            0.0295374393,
            0.0262103081,
            6.96182251e-05,
            0.0275650024,
            0.0274665356,
            0.0297825336,
            0.0255560875,
            0.0279927254,
            0.0325014591,
            0.0330212116,
            0.0276958942,
            0.0256085396,
            0.0294382572,
            0.0292599201,
            0.0274648666,
            0.0303676128,
            0.0310547352,
            0.0317735672,
            0.0284764767,
            0.0301642418,
            6.81877136e-05,
            0.0317351818,
            0.0301339626,
            0.02689147,
            0.0297317505,
            0.0322785378,
            0.0286741257
        ]
    },
    "adaptec2": {
        "RePlAce_LOWER_PCOF": [
            0.95718295,
            0.96114528,
            0.95292935,
            0.95909246,
            0.92996694,
            0.94680612,
            0.90365101,
            0.93902438,
            0.91071931,
            0.95340216,
            0.96334999,
            0.90883763,
            0.91246147,
            0.91137729,
            0.90508352,
            0.98077139,
            0.91122097,
            0.98246479,
            0.9252013,
            0.90983488,
            0.90910294,
            0.98235237,
            0.90853805,
            0.90866438,
            0.91374085,
            0.90652781,
            0.9081119,
            0.90898304,
            0.91302625,
            0.94096449,
            0.91014337,
            0.90804593,
            0.90951554,
            0.91033348,
            0.90919183,
            0.90983207,
            0.90972166,
            0.90894665,
            0.90917475,
            0.90983132,
            0.90939838,
            0.90992447,
            0.91026098,
            0.90914873,
            0.90922881,
            0.90965998,
            0.91023537,
            0.90761736,
            0.90957707,
            0.90616121,
            0.90915232,
            0.90915996,
            0.91051405,
            0.91044783,
            0.91021498,
            0.90979335,
            0.90751638,
            0.90471197,
            0.9019136,
            0.90427415,
            0.90904545,
            0.90913402,
            0.90885841,
            0.90941017,
            0.90998095,
            0.91010467,
            0.90834387,
            0.94938308,
            0.90587248,
            0.90938279,
            0.90126899,
            0.90952614,
            0.90693112,
            0.90890609,
            0.90076464,
            0.92389344,
            0.95466003,
            0.92344953,
            0.92559569,
            0.9528186,
            0.93241058,
            0.92792896,
            0.92843027,
            0.92990729,
            0.9291597,
            0.92564088,
            0.9023712,
            0.93662853,
            0.92756447,
            0.94672839,
            0.93989814,
            0.95120542,
            0.93381522,
            0.95915643,
            0.9534621,
            0.93728887,
            0.9039896,
            0.97344945,
            0.9865202,
            0.9060439
        ],
        "RePlAce_UPPER_PCOF": [
            1.13630694,
            1.02649554,
            1.04031968,
            1.10493696,
            1.10437114,
            1.03333697,
            1.11657447,
            1.10151532,
            1.1413359,
            1.02448208,
            1.13112533,
            1.03617637,
            1.03577252,
            1.03534737,
            1.03572649,
            1.11402058,
            1.03838227,
            1.06896883,
            1.07694294,
            1.03761586,
            1.03861071,
            1.02884948,
            1.03616602,
            1.03549476,
            1.03721827,
            1.03810402,
            1.03591314,
            1.03637273,
            1.03663419,
            1.06930252,
            1.03723561,
            1.03731612,
            1.03624147,
            1.0349021,
            1.03596806,
            1.03647758,
            1.03503707,
            1.03640404,
            1.03649715,
            1.03639567,
            1.03646086,
            1.03762895,
            1.03821694,
            1.03707716,
            1.03672588,
            1.0361269,
            1.03747655,
            1.03782654,
            1.03600673,
            1.03639701,
            1.03569605,
            1.03591026,
            1.03273909,
            1.03584045,
            1.03551536,
            1.04061691,
            1.03684804,
            1.03676412,
            1.03267256,
            1.0372843,
            1.03023404,
            1.03705608,
            1.03626603,
            1.0369575,
            1.03688468,
            1.03805797,
            1.03807728,
            1.04500467,
            1.03626511,
            1.03829762,
            1.03293978,
            1.03565692,
            1.0365763,
            1.03753106,
            1.0390172,
            1.03643883,
            1.01759196,
            1.03635504,
            1.03751383,
            1.03722106,
            1.03433578,
            1.03752363,
            1.03665295,
            1.03381878,
            1.03815746,
            1.03636883,
            1.03514641,
            1.03566991,
            1.03697236,
            1.03434652,
            1.03678462,
            1.03594179,
            1.03568576,
            1.03636028,
            1.03511604,
            1.03425872,
            1.036413,
            1.03613849,
            1.03658317,
            1.03853362
        ],
        "density_weight": [
            -1.17803907,
            -2.07710646,
            -5.64542666,
            -5.50615453,
            -1.27791183,
            -5.21935512,
            -5.16032751,
            -2.89687821,
            -5.49656273,
            -3.15839991,
            -3.45311249,
            -4.69418183,
            -4.77927041,
            -4.68337424,
            -4.65578954,
            -3.32301195,
            -4.77037917,
            -5.10107378,
            -5.41552598,
            -5.77136919,
            -4.78651779,
            -4.5111849,
            -4.80102814,
            -5.75010646,
            -4.74319849,
            -5.76892648,
            -4.75564577,
            -4.79575665,
            -4.7003876,
            -1.62634127,
            -4.76255072,
            -4.75886678,
            -4.70591465,
            -4.68737163,
            -4.70901212,
            -4.75935232,
            -4.73801243,
            -4.70436655,
            -4.79150462,
            -4.81570765,
            -4.75918423,
            -4.76384464,
            -4.71555581,
            -4.73003454,
            -4.78366998,
            -4.79148327,
            -4.71507331,
            -4.71748265,
            -4.78047132,
            -5.77052709,
            -4.72312373,
            -4.77343377,
            -4.91610136,
            -4.83320191,
            -4.83452718,
            -5.77597363,
            -4.3628144,
            -4.84390751,
            -4.75233175,
            -4.71299801,
            -4.33510929,
            -4.81141813,
            -4.70344041,
            -4.76033959,
            -4.74905631,
            -4.90791901,
            -4.71254456,
            -5.15063535,
            -5.86040117,
            -4.75056387,
            -4.33418178,
            -4.66770994,
            -4.92425229,
            -4.70574355,
            -4.72202817,
            -4.77216354,
            -3.85688884,
            -4.74651141,
            -4.7579444,
            -4.6833681,
            -4.72683701,
            -4.7318022,
            -4.70457197,
            -4.83975692,
            -4.73178131,
            -4.62437695,
            -4.31723692,
            -4.62038371,
            -4.71025586,
            -4.64502931,
            -4.79101887,
            -4.78418767,
            -4.82298238,
            -4.40210912,
            -4.36957994,
            -4.2975498,
            -4.39221879,
            -4.43561992,
            -4.35500272,
            -4.36294594
        ],
        "gamma": [
            4.9301022,
            1.17126734,
            2.7541219,
            4.71797115,
            3.84123913,
            2.95951843,
            1.21392196,
            1.5254176,
            3.89818813,
            3.63842551,
            4.82371176,
            4.0365787,
            3.97505948,
            3.96606971,
            3.92280979,
            3.0826833,
            3.97575343,
            2.02690509,
            2.97451602,
            3.95356435,
            4.00072717,
            3.74242429,
            4.04296213,
            3.92748405,
            4.00680797,
            3.92482892,
            3.9453272,
            4.00194933,
            4.00522119,
            3.635214,
            4.05897775,
            4.06879283,
            4.01461296,
            4.04690927,
            4.04399213,
            4.03218197,
            4.01472945,
            4.02936493,
            4.0211895,
            4.05088985,
            4.03510555,
            4.04085115,
            4.03277225,
            4.02535864,
            4.01164967,
            3.99461315,
            4.07275074,
            4.00770353,
            4.08493139,
            3.92459393,
            4.03219157,
            4.08398764,
            3.98178135,
            4.05250961,
            4.04478913,
            3.9725134,
            3.99525589,
            3.97796433,
            3.91417749,
            3.92550812,
            3.97510825,
            4.05905308,
            4.04198711,
            4.02313404,
            4.09092642,
            4.03050529,
            3.92291125,
            1.08745657,
            3.96179522,
            4.02694195,
            4.02939313,
            3.9903279,
            3.98896949,
            4.02527537,
            4.02338897,
            4.04970449,
            2.0510147,
            4.07425967,
            4.05577229,
            4.00301719,
            4.12726079,
            4.13848622,
            4.06138825,
            4.01771118,
            4.03787645,
            4.03650604,
            3.91012418,
            4.07261015,
            4.08258843,
            4.03512685,
            4.02071877,
            4.02042179,
            4.05091082,
            4.11632508,
            4.08332469,
            4.02722345,
            4.13455151,
            4.12657579,
            4.12320982,
            4.11997663
        ],
        "learning_rate": [
            -3.70495033,
            -2.4296561,
            -3.74640189,
            -2.02027511,
            -3.8138884,
            -3.28696199,
            -3.31431288,
            -2.17341698,
            -3.31459458,
            -3.83078533,
            -2.92003502,
            -2.05526501,
            -2.04788138,
            -2.00219967,
            -2.05876911,
            -2.02723118,
            -2.05879095,
            -2.13901003,
            -2.39128291,
            -2.06723785,
            -2.07563304,
            -3.07937631,
            -2.08339267,
            -2.04661331,
            -2.06002701,
            -2.07263637,
            -2.05973359,
            -2.0212902,
            -2.07476655,
            -3.05852363,
            -2.06583453,
            -2.07707326,
            -2.02638856,
            -2.04700152,
            -2.06885542,
            -2.04374972,
            -2.03808,
            -2.03274316,
            -2.06080105,
            -2.04052736,
            -2.03841887,
            -2.05461513,
            -2.06586746,
            -2.03579868,
            -2.05217186,
            -2.04610222,
            -2.06630492,
            -2.03834975,
            -2.04098918,
            -2.06920215,
            -2.04010732,
            -2.06160025,
            -2.0732658,
            -2.04785961,
            -2.05503818,
            -2.0735124,
            -2.02688736,
            -2.05914422,
            -2.06671223,
            -2.08367056,
            -2.07799774,
            -2.04803946,
            -2.03410481,
            -2.04087964,
            -2.06729979,
            -2.02654854,
            -2.0241542,
            -3.92956932,
            -2.08059646,
            -2.04539618,
            -2.03501679,
            -2.03474531,
            -2.10513267,
            -2.03509889,
            -2.02279025,
            -2.03997791,
            -2.74502751,
            -2.06286469,
            -2.03916464,
            -2.07563853,
            -2.07804237,
            -2.04566169,
            -2.0600916,
            -2.02603828,
            -2.05896908,
            -2.08372056,
            -2.04508021,
            -2.08026695,
            -2.08809693,
            -2.01934015,
            -2.03806737,
            -2.04550744,
            -2.07560964,
            -2.09546353,
            -2.11423799,
            -2.1108505,
            -2.10174306,
            -2.09443504,
            -2.06379533,
            -2.1095934
        ],
        "learning_rate_decay": [
            0.99721354,
            0.9984756,
            0.99721992,
            0.9985764,
            0.99770935,
            0.99885245,
            0.99729198,
            0.99648983,
            0.99703282,
            0.99620987,
            0.99640561,
            0.99715925,
            0.99722716,
            0.99718637,
            0.99714997,
            0.99738466,
            0.99707454,
            0.99911835,
            0.99782598,
            0.99676984,
            0.99703794,
            0.99895224,
            0.99717319,
            0.99656038,
            0.99707469,
            0.99671324,
            0.99712893,
            0.99710856,
            0.99711947,
            0.99876667,
            0.99675047,
            0.99674185,
            0.99713222,
            0.99715701,
            0.99710831,
            0.99716564,
            0.99716292,
            0.99717499,
            0.99713206,
            0.9967688,
            0.99714547,
            0.99719073,
            0.99673991,
            0.99716697,
            0.99716335,
            0.99712749,
            0.9967483,
            0.9977248,
            0.99715202,
            0.99719291,
            0.9971712,
            0.9974375,
            0.9960788,
            0.99669211,
            0.99674036,
            0.9961132,
            0.99603967,
            0.99607518,
            0.99650091,
            0.99650738,
            0.99612042,
            0.99714825,
            0.99712989,
            0.99671568,
            0.99675542,
            0.99672827,
            0.99669086,
            0.99830419,
            0.99617284,
            0.99716537,
            0.99615689,
            0.99717193,
            0.99664242,
            0.99714304,
            0.99677517,
            0.9970835,
            0.99718923,
            0.99708535,
            0.99703755,
            0.99709651,
            0.99711498,
            0.99710492,
            0.99713351,
            0.99711607,
            0.99714415,
            0.99709086,
            0.99669864,
            0.99712386,
            0.99708246,
            0.99713872,
            0.99708292,
            0.99711274,
            0.99707553,
            0.99712012,
            0.99713709,
            0.99720479,
            0.99709844,
            0.99716908,
            0.99710328,
            0.99704078
        ],
        "loss": [Infinity,
            82667790.0, Infinity,
            90571990.0, Infinity,
            82799460.0,
            89801780.0,
            94543140.0,
            86722420.0, Infinity,
            87061140.0,
            81691040.0,
            81727600.0,
            81796870.0,
            81777900.0,
            104350400.0,
            81908690.0,
            81905720.0,
            93101550.0,
            82307160.0,
            81752940.0,
            85623410.0,
            81778020.0,
            83106800.0,
            81747100.0,
            82146190.0,
            81821800.0,
            81820550.0,
            81771310.0,
            81850270.0,
            81621840.0,
            81788920.0,
            81694480.0,
            81863340.0,
            81739890.0,
            81658770.0,
            81911620.0,
            81655040.0,
            81654340.0,
            81690220.0,
            81665090.0,
            81819160.0,
            81778540.0,
            81699490.0,
            81712000.0,
            81812610.0,
            81702740.0,
            81806700.0,
            81734240.0,
            82757370.0,
            81733810.0,
            81715600.0,
            83429690.0,
            81751810.0,
            81854360.0,
            81711580.0,
            81782190.0,
            81715260.0,
            83484720.0,
            81809460.0,
            84290320.0,
            81713890.0,
            81703050.0,
            81758940.0,
            81762770.0,
            81771760.0,
            81851220.0, Infinity,
            82931570.0,
            81757020.0,
            82258230.0,
            81729600.0,
            81752100.0,
            81808350.0,
            81734220.0,
            81672860.0,
            313717100.0,
            81614880.0,
            81696660.0,
            81864110.0,
            82177760.0,
            81711840.0,
            81653780.0,
            82843230.0,
            81807650.0,
            81688020.0,
            81700510.0,
            81616860.0,
            81682950.0,
            81990460.0,
            81678000.0,
            81691380.0,
            81795760.0,
            81602560.0,
            81616990.0,
            81766300.0,
            81550370.0,
            81604690.0,
            81656580.0,
            81723180.0
        ],
        "iter_time": [
            6.96182251e-05,
            6.38961792e-05,
            6.96182251e-05,
            6.1750412e-05,
            6.15119934e-05,
            6.19888306e-05,
            6.07967377e-05,
            6.00814819e-05,
            6.07967377e-05,
            6.03199005e-05,
            6.60419464e-05,
            0.0286889076,
            0.0231432915,
            0.0371530056,
            0.0231099129,
            9.05990601e-05,
            0.0240437984,
            6.74724579e-05,
            6.72340393e-05,
            0.0238389969,
            0.0237562656,
            8.84532928e-05,
            0.022803545,
            0.02389884,
            0.0234735012,
            0.0235130787,
            0.023555994,
            0.0227100849,
            0.0240404606,
            6.74724579e-05,
            0.0287034512,
            0.0268101692,
            0.0248060226,
            0.0275788307,
            0.0270862579,
            0.0269966125,
            0.0249986649,
            0.0245578289,
            0.02724576,
            0.0251412392,
            0.0271606445,
            0.0261688232,
            0.0266668797,
            0.0270655155,
            0.0255041122,
            0.0252132416,
            0.0255804062,
            0.0318570137,
            0.0255930424,
            0.0303313732,
            0.0252449512,
            0.0249283314,
            0.0250222683,
            0.025793314,
            0.025141716,
            0.026279211,
            0.0306611061,
            0.0296194553,
            0.0254504681,
            0.0254440308,
            0.0272929668,
            0.0258405209,
            0.0256285667,
            0.0248322487,
            0.0268669128,
            0.0245609283,
            0.0283048153,
            6.58035278e-05,
            0.0263624191,
            0.0272912979,
            0.0320460796,
            0.0284891129,
            0.0312292576,
            0.0295209885,
            0.0276246071,
            0.0335364342,
            6.50882721e-05,
            0.0289845467,
            0.0291142464,
            0.02861166,
            0.0290968418,
            0.0323801041,
            0.0275189877,
            0.0269708633,
            0.0270454884,
            0.0274066925,
            0.0253846645,
            0.0298435688,
            0.0285243988,
            0.0314116478,
            0.0342442989,
            0.0260896683,
            0.0285744667,
            0.0313880444,
            0.0331451893,
            0.026321888,
            0.0291306973,
            0.0318992138,
            0.0294063091,
            0.0301053524
        ]
    },
    "adaptec3": {
        "RePlAce_LOWER_PCOF": [
            0.95177677,
            0.919603,
            0.98254504,
            0.98005389,
            0.92236947,
            0.94951176,
            0.91338541,
            0.98772054,
            0.93965705,
            0.9460833,
            0.94473413,
            0.94126007,
            0.9811977,
            0.98676612,
            0.94408357,
            0.91535256,
            0.95405163,
            0.94906805,
            0.96353028,
            0.93097015,
            0.9179309,
            0.96127628,
            0.9612727,
            0.95580712,
            0.95918264,
            0.94173519,
            0.97019344,
            0.91012927,
            0.9281029,
            0.94569371,
            0.96348679,
            0.94395608,
            0.94573586,
            0.94510383,
            0.94317246,
            0.9448878,
            0.94427837,
            0.9450957,
            0.94345349,
            0.94147896,
            0.94225922,
            0.94118409,
            0.94387907,
            0.94443698,
            0.91973634,
            0.94268715,
            0.94436524,
            0.94470674,
            0.94393399,
            0.95414779,
            0.94361442,
            0.92128265,
            0.94394355,
            0.91854997,
            0.94554739,
            0.90831432,
            0.94436593,
            0.90215872,
            0.94545303,
            0.90715977,
            0.94431411,
            0.92063863,
            0.94404875,
            0.94415823,
            0.94318576,
            0.94494423,
            0.94025485,
            0.92846488,
            0.95034773,
            0.97391403,
            0.9270285,
            0.92641466,
            0.97992982,
            0.90262018,
            0.92705518,
            0.93015567,
            0.93009654,
            0.97411114,
            0.93033394,
            0.92852708,
            0.94401537,
            0.90826328,
            0.90450306,
            0.92828915,
            0.904717,
            0.90739824,
            0.92967066,
            0.9722554,
            0.98804301,
            0.91171986,
            0.93306708,
            0.92619088,
            0.92914314,
            0.92655637,
            0.92142908,
            0.92907336,
            0.93402852,
            0.90669259,
            0.92894716,
            0.90371248
        ],
        "RePlAce_UPPER_PCOF": [
            1.09156959,
            1.05290774,
            1.14368255,
            1.1138126,
            1.03915292,
            1.02201812,
            1.1087835,
            1.08953595,
            1.11494399,
            1.06422539,
            1.03654144,
            1.03636335,
            1.03577889,
            1.03641291,
            1.06575446,
            1.03499647,
            1.03561721,
            1.03788923,
            1.03332567,
            1.03667157,
            1.03556801,
            1.03844349,
            1.03643923,
            1.03564579,
            1.03677089,
            1.03623329,
            1.03398924,
            1.03561675,
            1.0353854,
            1.03721572,
            1.03654987,
            1.03679873,
            1.03612807,
            1.03840316,
            1.03825197,
            1.03592317,
            1.0355582,
            1.03664422,
            1.03572242,
            1.03624193,
            1.03752263,
            1.03540572,
            1.03777539,
            1.03629357,
            1.03716892,
            1.03639104,
            1.03885704,
            1.037284,
            1.03709547,
            1.0367581,
            1.03790993,
            1.03794812,
            1.0392111,
            1.09052324,
            1.03754082,
            1.03901818,
            1.03708579,
            1.03677412,
            1.0343124,
            1.03733369,
            1.03673407,
            1.03353984,
            1.03700946,
            1.03737764,
            1.03759961,
            1.03496405,
            1.03563898,
            1.03780617,
            1.06570554,
            1.03492686,
            1.03425662,
            1.03882484,
            1.03692029,
            1.03597935,
            1.03977727,
            1.03747614,
            1.03824322,
            1.08125021,
            1.03608529,
            1.03815483,
            1.03753187,
            1.03750057,
            1.03474647,
            1.03621222,
            1.03596534,
            1.03625585,
            1.03749661,
            1.03233073,
            1.0361418,
            1.03759503,
            1.03821434,
            1.03806946,
            1.03746673,
            1.03862088,
            1.03910579,
            1.03737781,
            1.03961907,
            1.03484751,
            1.03797608,
            1.03576088
        ],
        "density_weight": [
            -1.64656684,
            -5.44990023,
            -3.82661638,
            -4.15875657,
            -4.71505217,
            -2.07546263,
            -3.52202965,
            -2.85228696,
            -1.02957949,
            -1.28636649,
            -3.99920124,
            -4.44318889,
            -4.54913304,
            -4.71507524,
            -4.00518774,
            -4.38254671,
            -4.42361242,
            -4.48604748,
            -4.64682705,
            -5.07599329,
            -5.02620457,
            -4.2104793,
            -4.53879211,
            -4.45926396,
            -4.45023936,
            -4.41517127,
            -4.59466663,
            -4.43875267,
            -5.06512617,
            -4.42963772,
            -4.34893365,
            -4.45780862,
            -4.44833761,
            -4.44233426,
            -4.43304696,
            -4.44001344,
            -4.44818498,
            -4.42707631,
            -4.45131286,
            -4.41769385,
            -4.30338362,
            -4.20070667,
            -4.45574712,
            -4.48310311,
            -5.19289094,
            -4.27109143,
            -4.43019743,
            -4.4759512,
            -4.52272091,
            -4.98784152,
            -4.4798831,
            -4.43315681,
            -4.47017254,
            -2.46019053,
            -4.49330544,
            -5.74835896,
            -4.46967429,
            -4.53384142,
            -4.4195565,
            -4.01796066,
            -4.48388094,
            -4.47553926,
            -4.49815747,
            -4.45675151,
            -4.30174616,
            -4.43050977,
            -5.00434898,
            -4.22954584,
            -3.45213908,
            -5.05370276,
            -4.1499088,
            -4.36941315,
            -4.802368,
            -4.72548571,
            -4.27274105,
            -4.2800474,
            -4.29296826,
            -5.52172824,
            -4.21223872,
            -4.2099632,
            -4.36424608,
            -4.67520417,
            -4.7442817,
            -4.32119331,
            -4.25238092,
            -4.87197573,
            -4.30220719,
            -3.96504987,
            -4.10741829,
            -4.67900833,
            -4.28534468,
            -4.30071237,
            -4.25560724,
            -4.31574299,
            -4.34670912,
            -4.35082507,
            -4.27501189,
            -4.68896945,
            -4.24991599,
            -4.94448193
        ],
        "gamma": [
            1.97688486,
            3.90139912,
            4.42178818,
            1.44838677,
            3.03559186,
            4.37389703,
            2.74406179,
            2.31897338,
            3.01601145,
            1.24976327,
            4.09272836,
            4.17840687,
            4.02363584,
            4.06900023,
            1.48527745,
            4.09833543,
            4.10308844,
            4.18060319,
            4.12382046,
            4.10563574,
            4.02996326,
            4.09167553,
            4.14409306,
            4.10130278,
            4.07553131,
            4.14137218,
            4.16406357,
            4.02378371,
            4.11624612,
            4.10529574,
            4.12477603,
            4.2143492,
            4.15260127,
            4.18325909,
            4.25064843,
            4.22778108,
            4.22883632,
            4.18627325,
            4.15620064,
            4.12521113,
            4.0488906,
            4.09406382,
            4.20510825,
            4.21440172,
            4.00722894,
            4.26071542,
            4.06137537,
            4.43630597,
            4.48175657,
            4.04854351,
            4.44866287,
            4.04441468,
            4.33092624,
            4.89199022,
            4.45293589,
            3.77703443,
            4.39535252,
            4.09944738,
            4.37275645,
            4.04396813,
            4.3069101,
            4.10427106,
            4.31722888,
            4.37931388,
            4.0201631,
            4.26760562,
            4.10075427,
            4.13386172,
            3.94469483,
            4.09210715,
            4.2505999,
            4.22820778,
            4.09141042,
            4.02645367,
            4.11446167,
            4.14803487,
            4.16647737,
            3.44311724,
            4.1748969,
            4.17594513,
            4.40183678,
            3.9899908,
            3.96828013,
            4.18747397,
            3.87281985,
            3.91986919,
            4.21644141,
            4.09469714,
            4.07731719,
            4.04231255,
            4.22371078,
            4.16230755,
            4.17047983,
            4.28352836,
            4.15015666,
            4.23124347,
            4.24545935,
            4.01895433,
            4.22332499,
            3.98278821
        ],
        "learning_rate": [
            -2.69573128,
            -3.68152811,
            -2.21822309,
            -3.59304827,
            -3.23730367,
            -3.95449146,
            -2.46122631,
            -3.10326268,
            -2.17109176,
            -2.61045527,
            -2.05827761,
            -2.11342448,
            -2.15079853,
            -2.09743377,
            -3.9043811,
            -2.02780444,
            -2.05436126,
            -2.10867367,
            -2.1333757,
            -2.04782117,
            -2.05385632,
            -2.09066728,
            -2.07472568,
            -2.11574262,
            -2.10667143,
            -2.07119681,
            -2.06707213,
            -2.03201043,
            -2.0850306,
            -2.07296626,
            -2.10504908,
            -2.10602527,
            -2.08738742,
            -2.09668017,
            -2.10236235,
            -2.09840929,
            -2.10265379,
            -2.10546545,
            -2.10463861,
            -2.06089313,
            -2.02540307,
            -2.00282903,
            -2.09676723,
            -2.10747785,
            -2.09123434,
            -2.00945446,
            -2.03558547,
            -2.10797472,
            -2.0934663,
            -2.05713066,
            -2.10069959,
            -2.06835255,
            -2.11845336,
            -3.98201869,
            -2.12638444,
            -2.055462,
            -2.11391866,
            -2.12949937,
            -2.11929701,
            -2.11054053,
            -2.10501831,
            -2.11060141,
            -2.11688711,
            -2.1239663,
            -2.01312853,
            -2.08315331,
            -2.06853861,
            -2.07942723,
            -2.97810254,
            -2.0718981,
            -2.08811283,
            -2.04855567,
            -2.10537849,
            -2.10374107,
            -2.05035486,
            -2.07240303,
            -2.07493087,
            -2.50836453,
            -2.09289188,
            -2.10095192,
            -2.07914952,
            -2.05777414,
            -2.10801566,
            -2.07891486,
            -2.03278801,
            -2.07469565,
            -2.06375429,
            -2.10414234,
            -2.05526521,
            -2.03564775,
            -2.04009976,
            -2.06446719,
            -2.03663939,
            -2.06309697,
            -2.08681747,
            -2.05153162,
            -2.04316044,
            -2.10098405,
            -2.04993462,
            -2.08030299
        ],
        "learning_rate_decay": [
            0.99625548,
            0.99997191,
            0.99850233,
            0.99903713,
            0.99996501,
            0.99957796,
            0.99981628,
            0.99795015,
            0.99761761,
            0.996222,
            0.99710873,
            0.99712528,
            0.99715383,
            0.99719302,
            0.99681104,
            0.99709882,
            0.99714833,
            0.9970914,
            0.99718227,
            0.99711844,
            0.99716999,
            0.99713556,
            0.99711002,
            0.99718429,
            0.9972017,
            0.99715307,
            0.99716602,
            0.99715914,
            0.9971098,
            0.99710137,
            0.99711228,
            0.99709525,
            0.99712467,
            0.99708891,
            0.99708007,
            0.99710669,
            0.99714925,
            0.997117,
            0.99710814,
            0.99715861,
            0.99680465,
            0.99683317,
            0.99710962,
            0.99714442,
            0.99675868,
            0.99673113,
            0.99678788,
            0.99708304,
            0.99709693,
            0.99716424,
            0.9969108,
            0.99674285,
            0.99715949,
            0.99661498,
            0.99709108,
            0.99610037,
            0.99708063,
            0.99711328,
            0.99707592,
            0.9970671,
            0.99706545,
            0.99712544,
            0.99712121,
            0.99710778,
            0.99676803,
            0.99709799,
            0.99673857,
            0.99711664,
            0.99613445,
            0.99702784,
            0.99713417,
            0.99703384,
            0.9967563,
            0.99631543,
            0.99722189,
            0.9971142,
            0.99714792,
            0.99895929,
            0.99716037,
            0.9970785,
            0.99705623,
            0.99672979,
            0.99681062,
            0.99714343,
            0.99601001,
            0.99641915,
            0.99713792,
            0.99713615,
            0.99705595,
            0.99627885,
            0.99714086,
            0.99714006,
            0.99711155,
            0.99713914,
            0.99712188,
            0.99711905,
            0.99718243,
            0.99602559,
            0.99714443,
            0.99623282
        ],
        "loss": [
            198430000.0, Infinity,
            228215300.0, Infinity,
            193088400.0, Infinity,
            196004600.0,
            203057700.0,
            210955000.0,
            195199500.0,
            192133800.0,
            192174400.0,
            192196700.0,
            192106500.0, Infinity,
            193111400.0,
            192337400.0,
            192089100.0,
            197395500.0,
            193093200.0,
            195419400.0,
            192422100.0,
            192170600.0,
            192349800.0,
            192371000.0,
            192023500.0,
            194009900.0,
            192726900.0,
            195817200.0,
            192316500.0,
            192088100.0,
            191987700.0,
            192358000.0,
            192167700.0,
            192404700.0,
            192007700.0,
            192823400.0,
            192345900.0,
            192596800.0,
            192262300.0,
            192085000.0,
            192350000.0,
            192051300.0,
            192342100.0,
            193056000.0,
            192094200.0,
            192206600.0,
            191915200.0,
            192297300.0,
            192598900.0,
            192189100.0,
            192198400.0,
            192241600.0, Infinity,
            192269000.0,
            193394800.0,
            191964800.0,
            192149000.0,
            194038600.0,
            192322000.0,
            192397100.0,
            196941500.0,
            192162600.0,
            192384200.0,
            192826900.0,
            193705200.0,
            193788100.0,
            191940000.0,
            195370900.0,
            195146200.0,
            193941900.0,
            192106000.0,
            192133800.0,
            193302100.0,
            192353200.0,
            192063000.0,
            192004900.0,
            194250800.0,
            192454100.0,
            192166100.0,
            192224500.0,
            192352300.0,
            194074600.0,
            192056800.0,
            192197600.0,
            192807200.0,
            191859100.0,
            193836300.0,
            192265900.0,
            192435700.0,
            192041100.0,
            191993700.0,
            192162200.0,
            192080900.0,
            192188200.0,
            192480800.0,
            192079800.0,
            195064700.0,
            192236900.0,
            193687100.0
        ],
        "iter_time": [
            5.81741333e-05,
            6.03199005e-05,
            6.24656677e-05,
            8.70227814e-05,
            6.22272491e-05,
            6.1750412e-05,
            6.69956207e-05,
            6.22272491e-05,
            6.1750412e-05,
            6.31809235e-05,
            0.0323774815,
            0.0234749317,
            0.0231609344,
            0.0255947113,
            8.63075256e-05,
            0.0271468163,
            0.0245726109,
            0.0261795521,
            0.0250997543,
            0.0262372494,
            0.0279090405,
            0.0284421444,
            0.0234146118,
            0.0254645348,
            0.0269219875,
            0.0237934589,
            0.0241396427,
            0.0261659622,
            0.0246531963,
            0.0252966881,
            0.0251505375,
            0.0296254158,
            0.0260968208,
            0.0277183056,
            0.0263552666,
            0.0248579979,
            0.0256686211,
            0.0263602734,
            0.0278253555,
            0.0254580975,
            0.02572155,
            0.0286414623,
            0.0287730694,
            0.0253090858,
            0.0249767303,
            0.0257160664,
            0.0273518562,
            0.0285060406,
            0.0259575844,
            0.0255036354,
            0.0251610279,
            0.0263319016,
            0.0290057659,
            6.48498535e-05,
            0.0290601254,
            0.0250616074,
            0.0263075829,
            0.0279819965,
            0.0276007652,
            0.0259692669,
            0.0248463154,
            0.0297963619,
            0.0251522064,
            0.0262041092,
            0.0259068012,
            0.0288462639,
            0.0276751518,
            0.0276544094,
            6.72340393e-05,
            0.0253388882,
            0.0291852951,
            0.025285244,
            0.0272426605,
            0.0260176659,
            0.0266001225,
            0.0281946659,
            0.0260972977,
            6.60419464e-05,
            0.0254085064,
            0.0258724689,
            0.0282189846,
            0.029160738,
            0.0259451866,
            0.0263853073,
            0.0288546085,
            0.0261034966,
            0.0256998539,
            0.0252013206,
            0.0304160118,
            0.0260028839,
            0.0326001644,
            0.0267128944,
            0.0271100998,
            0.0290954113,
            0.0266356468,
            0.0254523754,
            0.0305433273,
            0.0266456604,
            0.029140234,
            0.0282728672
        ]
    },
    "adaptec4": {
        "RePlAce_LOWER_PCOF": [
            0.97870894,
            0.9699806,
            0.91166675,
            0.9190101,
            0.92260443,
            0.96177653,
            0.92642999,
            0.96271122,
            0.9127795,
            0.94176756,
            0.97627707,
            0.9706117,
            0.96421816,
            0.97422019,
            0.96670955,
            0.97694668,
            0.96488531,
            0.96631035,
            0.90132625,
            0.98319213,
            0.97615723,
            0.96149825,
            0.96937149,
            0.97361124,
            0.96807278,
            0.98296237,
            0.97111443,
            0.97472609,
            0.98588318,
            0.9778959,
            0.97454239,
            0.96794816,
            0.96663108,
            0.96932851,
            0.98290583,
            0.98178995,
            0.98577568,
            0.97592928,
            0.96867278,
            0.96574871,
            0.95171703,
            0.93885417,
            0.92359788,
            0.94071105,
            0.94953122,
            0.94307012,
            0.94014728,
            0.94903155,
            0.95269026,
            0.94065132,
            0.94966381,
            0.93645265,
            0.94488691,
            0.93610463,
            0.93832067,
            0.94233941,
            0.91463777,
            0.9253889,
            0.94241755,
            0.96989925,
            0.98074447,
            0.98097918,
            0.93353867,
            0.95468772,
            0.98394672,
            0.96816238,
            0.93993704,
            0.90307594,
            0.94711928,
            0.97129242,
            0.92623337,
            0.92339618,
            0.92708379,
            0.92935752,
            0.92435688,
            0.93819633,
            0.93093344,
            0.94029635,
            0.93012533,
            0.94360348,
            0.94205033,
            0.94252152,
            0.92551001,
            0.93898038,
            0.93174824,
            0.93157836,
            0.98189414,
            0.92547845,
            0.96507711,
            0.97595378,
            0.91820033,
            0.96101249,
            0.96177882,
            0.96893494,
            0.96610471,
            0.92945929,
            0.97526558,
            0.96184538,
            0.90778487,
            0.92975244
        ],
        "RePlAce_UPPER_PCOF": [
            1.01540247,
            1.04203345,
            1.02044246,
            1.0125177,
            1.09418853,
            1.0444558,
            1.14470952,
            1.08704141,
            1.13145463,
            1.1399291,
            1.03447251,
            1.0478611,
            1.03353478,
            1.04678131,
            1.03672048,
            1.02840475,
            1.03649609,
            1.0470997,
            1.03638043,
            1.03859493,
            1.02816312,
            1.03682852,
            1.0414414,
            1.04274448,
            1.04414999,
            1.10365035,
            1.03978925,
            1.03638875,
            1.03515038,
            1.04938958,
            1.05196448,
            1.04195676,
            1.04177284,
            1.03916409,
            1.03986332,
            1.03937231,
            1.03888475,
            1.03864891,
            1.0398275,
            1.04029709,
            1.04035967,
            1.04044969,
            1.04146517,
            1.03801521,
            1.03861045,
            1.03979393,
            1.04157918,
            1.04107868,
            1.04168817,
            1.04072921,
            1.03943999,
            1.04097158,
            1.04105564,
            1.04048017,
            1.04053448,
            1.04122333,
            1.03952391,
            1.04171452,
            1.04048942,
            1.03763072,
            1.04032525,
            1.04173947,
            1.03925217,
            1.04097626,
            1.04191633,
            1.03985935,
            1.0406564,
            1.08680723,
            1.03968525,
            1.03840311,
            1.04084911,
            1.03911381,
            1.04096916,
            1.0412407,
            1.04301619,
            1.03969404,
            1.03985939,
            1.04109929,
            1.04121059,
            1.04065078,
            1.04143195,
            1.04162645,
            1.0407829,
            1.03494966,
            1.03952134,
            1.03959089,
            1.03209249,
            1.04076859,
            1.0399751,
            1.04128043,
            1.03701011,
            1.03999841,
            1.0387409,
            1.03981029,
            1.04247561,
            1.03719403,
            1.03964872,
            1.03935874,
            1.03625895,
            1.03803963
        ],
        "density_weight": [
            -3.47427178,
            -4.30170571,
            -2.57865298,
            -2.79084514,
            -2.78772453,
            -2.54571082,
            -1.65257159,
            -1.30202111,
            -3.85823915,
            -3.09939863,
            -4.33719555,
            -2.34539144,
            -5.70781659,
            -2.56312949,
            -3.12586566,
            -3.18829973,
            -4.50725412,
            -3.12592773,
            -4.25455094,
            -4.53680144,
            -4.37902522,
            -2.74880413,
            -4.29310019,
            -4.31521402,
            -4.59732757,
            -2.87845618,
            -4.57714577,
            -4.44049047,
            -4.57978799,
            -4.75496539,
            -4.75241426,
            -4.69391619,
            -4.71591057,
            -4.48394522,
            -4.54657015,
            -4.52931653,
            -4.55516365,
            -4.54039044,
            -4.56622166,
            -4.58250436,
            -4.51510247,
            -4.47736965,
            -4.51396217,
            -4.54906298,
            -4.57654248,
            -4.5201171,
            -4.56075601,
            -4.52707242,
            -4.55247199,
            -4.52257313,
            -4.5210712,
            -4.53496186,
            -4.52654813,
            -4.5119811,
            -4.50462735,
            -4.50417496,
            -4.49598014,
            -4.49788556,
            -4.50465144,
            -4.59160217,
            -4.5858901,
            -4.5957575,
            -4.48342027,
            -4.50475243,
            -4.55446894,
            -4.5214486,
            -4.531928,
            -5.14974713,
            -4.53324958,
            -4.55559635,
            -4.49013005,
            -4.51424103,
            -4.5377508,
            -4.49004079,
            -4.52840906,
            -4.53695862,
            -4.53068172,
            -4.50754585,
            -4.52598915,
            -4.48695025,
            -4.50052803,
            -4.50010349,
            -4.49271413,
            -3.72986106,
            -4.50682498,
            -4.54721153,
            -3.297606,
            -4.51857167,
            -4.47701645,
            -4.54725662,
            -5.52475716,
            -4.48687924,
            -4.4409148,
            -4.46544513,
            -4.46191496,
            -4.5860594,
            -4.51257803,
            -4.51771324,
            -4.69278542,
            -4.31078437
        ],
        "gamma": [
            2.13781873,
            3.84112897,
            2.87453668,
            1.7279155,
            3.1185496,
            4.26820482,
            2.97540304,
            2.4170961,
            4.60755641,
            3.63129054,
            3.71209765,
            4.05638117,
            4.12714767,
            3.82362235,
            3.86481691,
            3.91372297,
            3.75096255,
            4.02341599,
            4.07108469,
            4.16301031,
            4.6844723,
            4.10245354,
            3.80915924,
            3.75065745,
            4.05293513,
            3.34120466,
            4.40626985,
            4.49216043,
            4.2278257,
            4.19492429,
            4.9009624,
            4.16621604,
            4.15467972,
            4.42899919,
            4.34015875,
            4.30898265,
            4.36731887,
            4.41142684,
            4.49466736,
            4.45624529,
            4.33601242,
            4.39104977,
            4.35471038,
            4.42495208,
            4.23929962,
            4.43692682,
            4.35959291,
            4.25073139,
            4.2549572,
            4.35996537,
            4.28582128,
            4.38504679,
            4.32703815,
            4.34665154,
            4.36711451,
            4.33433604,
            4.36623155,
            4.36500342,
            4.33678389,
            4.39879577,
            4.39598477,
            4.38947745,
            4.32814172,
            4.36728032,
            4.42157904,
            4.40426411,
            4.34879007,
            2.12557236,
            4.3643042,
            4.42674183,
            4.34023835,
            4.36151561,
            4.35669957,
            4.37169902,
            4.35370433,
            4.35014355,
            4.36603122,
            4.37482986,
            4.3571494,
            4.32623476,
            4.33828306,
            4.38523608,
            4.35082453,
            4.08617432,
            4.36455408,
            4.34800489,
            1.46417971,
            4.3728444,
            4.37549608,
            4.28406878,
            4.02108949,
            4.40607454,
            4.392189,
            4.36258841,
            4.42116445,
            4.05498636,
            4.40823197,
            4.3785209,
            3.94426504,
            4.18465441
        ],
        "learning_rate": [
            -2.17674943,
            -2.16262757,
            -3.32943452,
            -3.10529794,
            -3.39328084,
            -2.88516752,
            -2.54144572,
            -2.18092198,
            -3.82916226,
            -3.99064249,
            -2.31922177,
            -3.22181895,
            -2.22067497,
            -3.45409154,
            -2.04287833,
            -2.07425192,
            -2.07798229,
            -2.05221341,
            -2.07502187,
            -2.09475833,
            -2.10676797,
            -2.02533053,
            -2.12523769,
            -2.16990345,
            -2.04386988,
            -2.64096547,
            -2.01136717,
            -2.13366296,
            -2.19957676,
            -2.11716732,
            -2.0092218,
            -2.03699758,
            -2.02810049,
            -2.03989025,
            -2.07339582,
            -2.09784533,
            -2.09134469,
            -2.08846929,
            -2.01767809,
            -2.12531032,
            -2.04971473,
            -2.01363176,
            -2.03791224,
            -2.02906333,
            -2.09773695,
            -2.00845423,
            -2.02146005,
            -2.0264247,
            -2.0545541,
            -2.01747961,
            -2.02041654,
            -2.02724973,
            -2.0105016,
            -2.00688355,
            -2.03470755,
            -2.03155547,
            -2.03216283,
            -2.03573347,
            -2.01786858,
            -2.01371559,
            -2.00823501,
            -2.02818351,
            -2.00447147,
            -2.00791,
            -2.00224487,
            -2.01505858,
            -2.01999229,
            -3.97975338,
            -2.01550209,
            -2.01998012,
            -2.01440656,
            -2.02407334,
            -2.0200563,
            -2.03099416,
            -2.03303494,
            -2.00785117,
            -2.02019244,
            -2.025752,
            -2.0260173,
            -2.01785341,
            -2.02819961,
            -2.02437723,
            -2.02989749,
            -2.13575387,
            -2.01354073,
            -2.02881628,
            -3.439548,
            -2.01921926,
            -2.01564139,
            -2.09538364,
            -2.03801192,
            -2.02138387,
            -2.03288373,
            -2.0288539,
            -2.00636212,
            -2.02527936,
            -2.01976934,
            -2.03890359,
            -2.04649626,
            -2.08363373
        ],
        "learning_rate_decay": [
            0.99622449,
            0.99716201,
            0.99695587,
            0.99915726,
            0.99979264,
            0.99732153,
            0.99899062,
            0.99668478,
            0.99902544,
            0.99627199,
            0.99731987,
            0.99722308,
            0.99718445,
            0.9973937,
            0.99720078,
            0.99697577,
            0.99715001,
            0.99709747,
            0.99710562,
            0.99714131,
            0.99728341,
            0.99722512,
            0.99724805,
            0.99688321,
            0.99647946,
            0.99717535,
            0.99636637,
            0.99616046,
            0.99771044,
            0.9982676,
            0.9966923,
            0.99650453,
            0.99677425,
            0.99659299,
            0.99729349,
            0.99710647,
            0.99651164,
            0.99685856,
            0.99613477,
            0.99780752,
            0.99605509,
            0.99604648,
            0.99630309,
            0.99610805,
            0.99872534,
            0.99687733,
            0.99649718,
            0.99604815,
            0.99616179,
            0.99618291,
            0.99632093,
            0.99611659,
            0.99649961,
            0.9961222,
            0.99620292,
            0.99648639,
            0.99609347,
            0.99639394,
            0.99612849,
            0.99646664,
            0.99605535,
            0.99600652,
            0.99615074,
            0.99628784,
            0.99612798,
            0.99602001,
            0.9961419,
            0.99635758,
            0.99620617,
            0.99640271,
            0.99611817,
            0.99621847,
            0.99610053,
            0.99609167,
            0.996119,
            0.9961188,
            0.99611434,
            0.99616816,
            0.99612674,
            0.99617597,
            0.99615269,
            0.99613292,
            0.9961169,
            0.99716271,
            0.99612225,
            0.99611472,
            0.99778353,
            0.99612174,
            0.99604442,
            0.99707825,
            0.99709136,
            0.99602004,
            0.99609926,
            0.9960683,
            0.99604047,
            0.99712102,
            0.9960208,
            0.99607098,
            0.99673967,
            0.99713129
        ],
        "loss": [
            668616500.0,
            173183500.0,
            282879300.0,
            716459200.0, Infinity,
            173999800.0,
            193318600.0,
            183358000.0, Infinity, Infinity,
            178013000.0,
            173953300.0,
            195962200.0, Infinity,
            173254400.0,
            199176000.0,
            174696900.0,
            173627300.0,
            174708900.0,
            172927200.0,
            216729500.0,
            173397400.0,
            173167300.0,
            173170000.0,
            173127200.0,
            189085600.0,
            172877000.0,
            174460800.0,
            177218000.0,
            173434300.0,
            174521100.0,
            173028200.0,
            173070400.0,
            172931500.0,
            172954400.0,
            172815700.0,
            172973300.0,
            173351000.0,
            172953000.0,
            173051400.0,
            172884200.0,
            172891600.0,
            172949400.0,
            173861900.0,
            173280100.0,
            173132300.0,
            173007300.0,
            172878200.0,
            172991100.0,
            172790000.0,
            173340900.0,
            172936000.0,
            172980200.0,
            172851500.0,
            172799600.0,
            172950100.0,
            173423200.0,
            173013000.0,
            172844000.0,
            174096900.0,
            172878000.0,
            172982600.0,
            173344400.0,
            172985400.0,
            173146300.0,
            172848400.0,
            172962000.0, Infinity,
            172904000.0,
            173404500.0,
            172868300.0,
            173443600.0,
            172844500.0,
            172845600.0,
            173211500.0,
            172949700.0,
            172853700.0,
            172956000.0,
            172895200.0,
            172961000.0,
            172965700.0,
            173064600.0,
            172877900.0,
            175879600.0,
            173005700.0,
            172863500.0, Infinity,
            172876700.0,
            172778100.0,
            172929000.0,
            180441400.0,
            172825200.0,
            173148900.0,
            172952900.0,
            173276200.0,
            174894200.0,
            172863700.0,
            172963000.0,
            177327000.0,
            173816000.0
        ],
        "iter_time": [
            7.74860382e-05,
            7.65323639e-05,
            9.94205475e-05,
            6.10351562e-05,
            6.55651093e-05,
            0.000112771988,
            6.29425049e-05,
            6.19888306e-05,
            6.3419342e-05,
            6.58035278e-05,
            0.0337162018,
            0.0254912376,
            0.02374053,
            0.0286121368,
            0.030377388,
            0.0300693512,
            0.0268466473,
            0.0234844685,
            0.027793169,
            0.0277452469,
            0.023629427,
            0.0373852253,
            0.0278375149,
            0.0260100365,
            0.0289497375,
            6.91413879e-05,
            0.0333757401,
            0.0281710625,
            0.02896595,
            0.0254030228,
            0.0338785648,
            0.0282268524,
            0.030059576,
            0.0311713219,
            0.0293138027,
            0.0314218998,
            0.0317957401,
            0.0269794464,
            0.0265986919,
            0.0257434845,
            0.0282790661,
            0.0288124084,
            0.0282547474,
            0.0276508331,
            0.0285451412,
            0.0260968208,
            0.0251603127,
            0.0254955292,
            0.0271675587,
            0.0294113159,
            0.0280828476,
            0.0281200409,
            0.0319485664,
            0.0282719135,
            0.0287387371,
            0.0247838497,
            0.0314972401,
            0.0288589001,
            0.0295908451,
            0.028989315,
            0.0277194977,
            0.0302455425,
            0.0257401466,
            0.0258271694,
            0.028519392,
            0.0269546509,
            0.027602911,
            6.91413879e-05,
            0.0284547806,
            0.0283801556,
            0.0270826817,
            0.0292503834,
            0.0280520916,
            0.0285980701,
            0.0270493031,
            0.0294077396,
            0.0261359215,
            0.0259687901,
            0.0262293816,
            0.028619051,
            0.0253937244,
            0.0271048546,
            0.0261576176,
            0.0261676311,
            0.0284981728,
            0.0263335705,
            6.53266907e-05,
            0.0258710384,
            0.0300297737,
            0.0280723572,
            0.0268900394,
            0.0298564434,
            0.0290966034,
            0.0304026604,
            0.0276861191,
            0.0270075798,
            0.0293431282,
            0.02997756,
            0.0275974274,
            0.0264327526
        ]
    }
}