{"bigblue1": {"RePlAce_LOWER_PCOF": [0.91142119, 0.96665367, 0.95921843, 0.92485677, 0.95789553, 0.90853452, 0.93484766, 0.96406077, 0.94054614, 0.95210457, 0.9131203, 0.92361761, 0.92797017, 0.92596933, 0.92851845, 0.93047649, 0.94491041, 0.93209995, 0.92597849, 0.93171037, 0.9323574, 0.93047561, 0.92951548, 0.93153234, 0.94624196, 0.92993864, 0.93161225, 0.93062794, 0.92646525, 0.91360077, 0.91868982, 0.93144039, 0.93237209, 0.93143486, 0.93157976, 0.9325979, 0.93337398, 0.93237639, 0.93206318, 0.933028, 0.93267363, 0.93182765, 0.91275898, 0.93291643, 0.90114025, 0.93313877, 0.92816797, 0.93297476, 0.93208291, 0.9312402, 0.92770183, 0.97936504, 0.93283962, 0.93225151, 0.93230076, 0.93227927, 0.98202338, 0.94366222, 0.94640333, 0.94753378, 0.94601732, 0.96840993, 0.98415725, 0.95535001, 0.93906004, 0.9360293, 0.93999413, 0.95058988, 0.945175, 0.9437699, 0.96226807, 0.90871428, 0.9259084, 0.9567229, 0.98270362, 0.90493463, 0.98006384, 0.94509357, 0.93072203, 0.91146894, 0.90908981, 0.91695205, 0.96113496, 0.94746701, 0.98435423, 0.93286164, 0.92876167, 0.90216736, 0.92688653, 0.92232827, 0.92803666, 0.91206931, 0.92712882, 0.96316791, 0.90378874, 0.91318494, 0.90894585, 0.92657764, 0.90076354, 0.92157907], "RePlAce_UPPER_PCOF": [1.01814176, 1.05345063, 1.10662321, 1.04495237, 1.04071251, 1.03645502, 1.08408179, 1.13808999, 1.13679808, 1.13035792, 1.03071318, 1.03246998, 1.03426237, 1.02523984, 1.03792605, 1.04165146, 1.0469084, 1.03141261, 1.04533217, 1.04899892, 1.03490589, 1.03624592, 1.04007991, 1.03702389, 1.13084987, 1.03172704, 1.03517654, 1.03509712, 1.03144992, 1.04516926, 1.05077329, 1.03720545, 1.03550221, 1.03504247, 1.03547292, 1.03726836, 1.03796425, 1.03920143, 1.03753932, 1.03709459, 1.03723155, 1.03637806, 1.04713913, 1.03747427, 1.09795575, 1.03796757, 1.03812686, 1.03687148, 1.03771383, 1.03760976, 1.05301213, 1.11980241, 1.03714466, 1.03711288, 1.03809213, 1.037742, 1.02599441, 1.03797505, 1.03809518, 1.10881757, 1.03681772, 1.03751577, 1.02456691, 1.03755637, 1.03788266, 1.03721482, 1.04106152, 1.03740516, 1.03628587, 1.0385986, 1.03823123, 1.03686266, 1.03647101, 1.03808652, 1.03869532, 1.03885463, 1.04040916, 1.03765519, 1.10238725, 1.0383199, 1.03819675, 1.03927305, 1.03599392, 1.03683147, 1.02446469, 1.03709395, 1.0387193, 1.03585032, 1.03749716, 1.03269837, 1.03599884, 1.03256191, 1.03627732, 1.0379869, 1.03365572, 1.03625535, 1.03177038, 1.03327482, 1.03449751, 1.03531533], "density_weight": [-3.11012679, -3.09505757, -5.69822118, -3.97669064, -3.18889124, -3.54583749, -3.93141055, -5.9499294, -5.25179351, -4.22100531, -3.56243382, -3.57878707, -3.56778958, -3.58432147, -3.62347463, -3.60798105, -2.41766751, -3.59790314, -3.59397925, -3.59188382, -3.63529248, -3.58215587, -3.58950824, -3.52763376, -2.00527722, -3.52679799, -3.55576711, -3.59962361, -3.81718413, -5.30495325, -5.60347381, -3.50847177, -3.49508676, -3.59028468, -3.50902007, -3.55716542, -3.59169312, -3.5913338, -3.60103909, -3.66826258, -3.57874708, -3.5466604, -5.45024221, -3.59612198, -1.88622599, -3.59006256, -3.631108, -3.56847289, -3.63162358, -3.6320976, -4.69405401, -4.93935542, -3.59497968, -3.6004164, -3.63208692, -3.53315189, -1.30382416, -3.58913153, -3.47910782, -3.06658505, -3.71276779, -3.63712489, -1.31275031, -3.66660313, -4.06118565, -3.20699477, -3.96551034, -3.34622084, -3.39392301, -3.17785828, -4.07574567, -3.24610621, -3.23554138, -2.98474182, -3.21780218, -4.21443696, -3.5308359, -2.72170577, -4.35515193, -3.37428708, -3.93744273, -2.62393345, -5.2374791, -3.40744925, -1.21544093, -4.15364867, -4.27254374, -2.64483311, -1.7023948, -3.39790161, -2.66775011, -2.69507598, -2.32365734, -3.15064737, -2.32041641, -2.03862154, -2.5672237, -2.61974891, -2.35691773, -2.37609282], "gamma": [4.67903999, 3.82299581, 3.13113159, 2.77305392, 1.02714329, 2.89646943, 3.62993968, 4.86733623, 4.68514865, 1.800728, 2.86687348, 2.88124382, 2.89056915, 2.90760963, 2.9119651, 2.87403627, 3.64628449, 2.92172933, 2.84118285, 2.92754792, 2.88144213, 2.87276179, 2.86984814, 2.84463302, 2.52611918, 2.84503439, 2.87595511, 2.8394632, 2.9487591, 2.55907724, 3.23986365, 2.88683704, 2.87923915, 2.84892189, 2.8519549, 2.94324831, 2.97611191, 3.02116985, 2.95732705, 2.96632184, 3.00328644, 2.97906314, 2.67179215, 2.96929643, 3.2875929, 2.96884643, 2.98433688, 2.93493004, 2.97835415, 3.02061964, 4.82904866, 2.74842517, 2.96897882, 2.94505628, 2.97439408, 2.95796843, 4.04518887, 2.95079664, 2.87779239, 4.47468262, 2.89790821, 2.95123036, 4.05227032, 2.85696675, 2.96906095, 2.96991419, 3.18726044, 2.67087317, 2.78265371, 3.11644532, 2.96998591, 2.9915848, 2.60270354, 3.01324774, 2.68096253, 2.91954171, 2.65109488, 2.92686321, 2.39669814, 3.04481687, 2.95193174, 3.06420457, 4.10560718, 2.66261664, 4.08049404, 2.81051821, 3.12116386, 2.75137703, 2.78192577, 3.40656093, 2.90523359, 2.67421124, 2.67089425, 2.85855023, 3.0581957, 2.85922818, 2.50380324, 3.20558887, 2.85883398, 2.64787614], "learning_rate": [-2.63061585, -2.69470061, -3.3734437, -3.39246753, -3.35695216, -3.12815631, -3.85262492, -3.47454742, -2.98274237, -2.44231919, -3.10256949, -3.12891661, -3.10921785, -3.15853242, -3.16047623, -3.07556175, -2.09337428, -3.13326649, -3.07435361, -3.11520481, -3.19221493, -3.0480366, -3.01364596, -3.02691326, -3.8460428, -3.02699047, -3.02841384, -3.05305277, -3.14307929, -2.75986141, -2.83494734, -3.02604505, -3.02854175, -3.02625451, -3.02248465, -3.02791261, -3.02315399, -3.02095017, -3.02377396, -3.03413492, -3.04774831, -3.02020708, -2.71204428, -3.01371558, -2.94787802, -3.02072758, -3.17582368, -3.01690937, -3.01541536, -3.0159449, -2.58259431, -3.9075313, -3.01179316, -3.00249949, -3.01929955, -3.01321483, -2.7626642, -3.03612037, -3.05695794, -3.55191639, -3.04700737, -3.01572591, -2.77857353, -3.05602757, -2.97817756, -2.97126807, -3.02200036, -2.98013162, -3.02840217, -3.08920053, -3.12758404, -3.00234871, -2.97119197, -3.03405726, -3.02141761, -3.179765, -3.03302351, -3.03149801, -2.30653572, -3.00078001, -2.95759326, -3.00453523, -3.27393343, -2.99803065, -2.74213691, -3.03033589, -3.04840488, -2.99808673, -3.0104179, -2.9841642, -2.9859204, -3.02014876, -3.05190414, -2.99803722, -2.97435538, -2.9549818, -2.97456246, -3.01373832, -2.9694975, -2.95942655], "learning_rate_decay": [0.9988089, 0.99735838, 0.99722707, 0.99632663, 0.99657691, 0.99805291, 0.99728343, 0.99676559, 0.9975332, 0.9997423, 0.99808384, 0.99806807, 0.99809415, 0.99805458, 0.99807888, 0.99808307, 0.99889608, 0.99804972, 0.99809317, 0.99805678, 0.99809347, 0.99807586, 0.9980852, 0.99810868, 0.99842355, 0.99813498, 0.99812511, 0.9980761, 0.99808337, 0.99921174, 0.9989304, 0.99811764, 0.99815881, 0.99812675, 0.99811726, 0.99807575, 0.99805276, 0.99799123, 0.99807153, 0.99808929, 0.99804323, 0.99809081, 0.99922268, 0.99809852, 0.99616718, 0.99806468, 0.99812877, 0.99808765, 0.99814865, 0.99812804, 0.99737446, 0.99975268, 0.99810074, 0.99829516, 0.99816579, 0.99806478, 0.99685642, 0.99810239, 0.99811178, 0.9973155, 0.9980898, 0.9980991, 0.99683763, 0.99840987, 0.99801606, 0.99815693, 0.99821811, 0.9981331, 0.99840712, 0.99791194, 0.99816802, 0.99810051, 0.9981351, 0.99813649, 0.9980611, 0.99807686, 0.99809204, 0.99799285, 0.99725812, 0.99813673, 0.9980827, 0.99811168, 0.99808176, 0.99818346, 0.99677268, 0.99870077, 0.9983894, 0.99815858, 0.99801153, 0.99752504, 0.99757366, 0.99797764, 0.99815901, 0.99788301, 0.99858126, 0.99788993, 0.99865074, 0.99758509, 0.99812064, 0.99762427], "loss": [113563000.0, 89419930.0, 91837340.0, 89262180.0, 89698340.0, 89225050.0, Infinity, 94220980.0, 91946080.0, 94965800.0, 89216050.0, 89200980.0, 89197520.0, 89877860.0, 89156820.0, 89195920.0, 89362480.0, 89205340.0, 89294230.0, 89329180.0, 89199550.0, 89180560.0, 89194770.0, 89186430.0, Infinity, 89202100.0, 89178620.0, 89205480.0, 89211820.0, 89320550.0, 89408960.0, 89169660.0, 89183600.0, 89209310.0, 89185900.0, 89149160.0, 89165680.0, 89193040.0, 89159740.0, 89172300.0, 89183120.0, 89178990.0, 89334420.0, 89159450.0, 90465600.0, 89162400.0, 89181700.0, 89193090.0, 89153280.0, 89187270.0, 89327150.0, Infinity, 89164080.0, 89188730.0, 89174250.0, 89158460.0, 89077630.0, 89146090.0, 89189780.0, 90613470.0, 89198460.0, 89168480.0, 89052850.0, 89179700.0, 89213230.0, 89172750.0, 89218900.0, 89156780.0, 89179400.0, 89186910.0, 89185870.0, 89146100.0, 89169760.0, 89169030.0, 89189980.0, 89184930.0, 89249900.0, 89159140.0, 91303200.0, 89164780.0, 89188970.0, 89175160.0, 89334360.0, 89141580.0, 89046010.0, 89190500.0, 89184930.0, 89128860.0, 89314260.0, 89119300.0, 89138140.0, 89118270.0, 89188860.0, 89145970.0, 89098510.0, 89249810.0, 89151980.0, 89122100.0, 89120960.0, 89152110.0], "iter_time": [5.2690506e-05, 4.43458557e-05, 4.60147858e-05, 6.81877136e-05, 4.38690186e-05, 4.55379486e-05, 5.10215759e-05, 4.41074371e-05, 4.22000885e-05, 4.45842743e-05, 0.0304908752, 0.0319654942, 0.0209779739, 0.0255846977, 0.0234913826, 0.0250368118, 5.31673431e-05, 0.0229985714, 0.0232338905, 0.0229697227, 0.0214807987, 0.0229516029, 0.0201165676, 0.0238096714, 7.05718994e-05, 0.0234985352, 0.0223782063, 0.0234003067, 0.0219147205, 0.0251605511, 0.0259943008, 0.0282874107, 0.0204696655, 0.0263066292, 0.0262198448, 0.0187218189, 0.0255668163, 0.0268108845, 0.0186710358, 0.0257549286, 0.0230822563, 0.0277116299, 0.0251355171, 0.0249843597, 4.9829483e-05, 0.0258274078, 0.0277702808, 0.0293281078, 0.0284874439, 0.0217602253, 5.12599945e-05, 5.17368317e-05, 0.026538372, 0.0252382755, 0.0190455914, 0.0265543461, 0.0238111019, 0.0260651112, 0.0208187103, 5.29289246e-05, 0.0267176628, 0.0193619728, 0.0297932625, 0.0245964527, 0.0194303989, 0.0246810913, 0.0258431435, 0.0244688988, 0.0262870789, 0.0224614143, 0.0220453739, 0.0258939266, 0.0261836052, 0.0269050598, 0.0285134315, 0.0252435207, 0.0197134018, 0.0308277607, 0.000119924545, 0.0293416977, 0.0280354023, 0.0272202492, 6.48498535e-05, 0.0316126347, 0.0296275616, 0.0311210155, 0.0302405357, 0.0300223827, 0.0321719646, 0.0197074413, 0.0252752304, 0.0303544998, 0.0298230648, 0.0267410278, 0.0324258804, 0.02115345, 0.0254337788, 0.0209615231, 0.0266580582, 0.0246787071]}, "bigblue2": {"RePlAce_LOWER_PCOF": [0.98673671, 0.92085079, 0.94579164, 0.95496959, 0.9284038, 0.92442286, 0.91543924, 0.94737906, 0.98356173, 0.93080817, 0.91530168, 0.91630225, 0.93884263, 0.95210939, 0.98087054, 0.98387527, 0.90707269, 0.96352797, 0.95942623, 0.92303995, 0.90360714, 0.90242456, 0.90767879, 0.97401527, 0.90972339, 0.95826585, 0.923397, 0.92030165, 0.91331475, 0.91249755, 0.93694381, 0.91467378, 0.92890033, 0.95649072, 0.91350401, 0.93996377, 0.937387, 0.93459966, 0.93848467, 0.98801085, 0.93956112, 0.93681266, 0.93929642, 0.93905905, 0.94188761, 0.91870717, 0.91865638, 0.91828982, 0.9191476, 0.9809282, 0.92311336, 0.91921494, 0.91930337, 0.91857685, 0.98286912, 0.94368998, 0.93572058, 0.96610447, 0.93824052, 0.9847908, 0.97065821, 0.9787903, 0.96484051, 0.982862, 0.90767675, 0.9854861, 0.97891083, 0.98024318, 0.94957645, 0.95665499, 0.93465727, 0.94028231, 0.9786024, 0.96504482, 0.97636072, 0.97198388, 0.98712919, 0.9601083, 0.97269776, 0.95817094, 0.97510148, 0.98582979, 0.96194286, 0.93476663, 0.95954214, 0.90671302, 0.93492567, 0.97123056, 0.94226904, 0.91693085, 0.93652343, 0.92714683, 0.9600217, 0.94089661, 0.97419989, 0.94727579, 0.95404532, 0.94771034, 0.9360397, 0.93414288], "RePlAce_UPPER_PCOF": [1.04935066, 1.11304727, 1.13033638, 1.03835325, 1.11321305, 1.12117482, 1.07652646, 1.14730546, 1.11859363, 1.04581208, 1.0362608, 1.03446721, 1.0319076, 1.03336973, 1.03326749, 1.02978568, 1.03156997, 1.03381326, 1.02212157, 1.03514647, 1.03562214, 1.03827622, 1.02399871, 1.02634867, 1.03402849, 1.06403374, 1.03327003, 1.03438837, 1.0359794, 1.03661947, 1.04755505, 1.03544677, 1.02686027, 1.03115662, 1.04118304, 1.04339039, 1.03979423, 1.04377408, 1.03573305, 1.04512492, 1.03981966, 1.04357174, 1.03859105, 1.05890338, 1.04671478, 1.05014466, 1.05034461, 1.05005463, 1.05028622, 1.0591401, 1.03582041, 1.05059609, 1.05015215, 1.05111728, 1.05169803, 1.04648025, 1.03960403, 1.04744098, 1.0443461, 1.04844845, 1.04890033, 1.04805037, 1.097871, 1.0486575, 1.12144301, 1.04871311, 1.04907803, 1.04814099, 1.0483414, 1.04646711, 1.04758868, 1.04925096, 1.04746464, 1.0470277, 1.04669408, 1.04657481, 1.04772179, 1.04679066, 1.04485261, 1.04863469, 1.04790036, 1.04650135, 1.0475113, 1.0469128, 1.04838202, 1.10689404, 1.04899267, 1.04694806, 1.04606068, 1.04641394, 1.04592651, 1.04593062, 1.01495326, 1.04695648, 1.04833476, 1.04718679, 1.04753541, 1.04540793, 1.04749928, 1.04784239], "density_weight": [-5.55231235, -1.44026294, -2.63844294, -1.13655666, -2.62635152, -1.81165624, -3.36476093, -1.3018088, -3.15297447, -5.9074332, -2.45770577, -2.80926057, -3.11920924, -3.65551061, -5.73135513, -1.48042959, -2.53885767, -2.70847787, -4.04673282, -2.2938909, -3.54465538, -4.15671232, -3.43557264, -1.20874979, -2.32210615, -5.84650472, -2.59694913, -2.42840031, -2.87215654, -3.14543466, -1.1558146, -2.80034429, -2.231336, -2.04819874, -2.85289033, -3.73995355, -4.56657476, -4.33176261, -5.23538163, -4.69505805, -4.56697118, -4.56984202, -4.31994666, -4.2276263, -4.3426636, -5.58151019, -3.93456455, -5.49351018, -5.4619769, -5.67176505, -4.23136975, -5.56988561, -5.60232429, -5.59271916, -4.18792649, -4.73071298, -4.40978211, -4.21703386, -4.94834889, -5.50445782, -4.48555762, -4.11136051, -3.06164688, -4.18484306, -1.5293906, -4.24961476, -4.31327833, -4.74725823, -4.18489829, -4.17428177, -4.06640365, -4.1489812, -4.25948012, -4.14752185, -4.20546435, -4.13101429, -4.23736284, -4.2170791, -4.18127799, -4.20960421, -4.19950786, -4.17854727, -4.17154207, -4.35671906, -4.21933928, -2.93625479, -4.29169534, -4.21429041, -4.35758426, -4.33908654, -4.31017776, -4.1851479, -4.13927257, -4.36026846, -4.25225409, -4.35237352, -4.16356871, -4.35092119, -4.29651, -4.30741501], "gamma": [3.24575638, 1.36379965, 4.06946449, 4.48706875, 4.53713116, 3.84159347, 3.7494199, 1.78989361, 2.84149049, 2.43932249, 2.90293683, 2.78462882, 3.26365579, 3.2355086, 3.23167155, 4.02827295, 3.06975994, 3.04533816, 3.29735272, 2.55149847, 3.46302199, 3.34271821, 3.47543899, 3.53697565, 3.57524654, 3.20287808, 1.76378805, 4.33529728, 4.3827646, 4.4308893, 4.50017637, 4.82479165, 3.88395632, 4.95446793, 3.84086934, 4.74131197, 4.15926615, 4.64056765, 4.1544351, 4.32596951, 3.97238852, 3.13906774, 2.96659058, 3.09678183, 3.82838624, 3.21549911, 3.23040985, 3.20069912, 3.2328407, 2.40968875, 4.06261861, 3.2254356, 3.18791564, 3.19172578, 3.0341698, 3.53866654, 3.02979356, 3.88596225, 4.07190114, 2.79022881, 3.81554943, 3.75819606, 3.90608046, 3.79959507, 1.63169282, 3.95340711, 4.19262701, 3.79350881, 3.74746596, 3.65447623, 3.95890442, 3.56642934, 4.19979458, 4.29825415, 4.36557346, 4.10596595, 3.9090923, 4.16316938, 4.12128651, 4.15527684, 3.63470039, 4.07184283, 4.31617712, 3.84479443, 4.34048604, 2.7122003, 3.74990883, 4.35064168, 3.6606809, 3.60793821, 4.00327559, 3.85553458, 3.0802881, 3.94974266, 4.14305152, 3.65701001, 4.51178494, 3.99419124, 4.140856, 4.23151925], "learning_rate": [-2.54825709, -3.29568768, -2.27019102, -2.58252673, -2.16234014, -3.62676397, -2.70244849, -3.87309045, -3.95100503, -3.4439015, -3.04661294, -3.0323668, -2.93444174, -3.00537966, -2.67570795, -2.92867769, -3.01400917, -2.93992809, -3.10274598, -3.00262742, -3.03875233, -3.02749447, -2.9701554, -2.57292335, -2.93460161, -2.51953848, -2.95146716, -3.04145097, -3.09206877, -3.00748883, -3.17328647, -3.01253559, -3.06362275, -3.0323655, -3.09354425, -3.09844223, -3.15189984, -3.15304322, -3.07677953, -2.55088657, -3.10367758, -3.12090844, -3.16769619, -3.13087135, -3.1060899, -2.83371679, -2.85013621, -2.99873603, -2.62168811, -2.71604767, -3.42002306, -2.82854872, -2.83095011, -2.84633778, -2.50455178, -3.16933714, -2.97517839, -3.26936612, -3.30934321, -2.59320615, -3.32474496, -3.34469546, -2.30950748, -3.27137875, -3.20034145, -3.24082035, -3.23178413, -3.39508092, -3.10923895, -3.13752489, -3.07344977, -3.11713062, -3.10881294, -3.1216997, -3.13095197, -3.10027903, -3.25711993, -3.1012722, -3.10985146, -3.11476252, -3.12004642, -3.11250758, -3.10861127, -3.11482459, -3.10347564, -3.98491008, -3.09993207, -3.10116669, -3.08310185, -3.12647546, -3.12617549, -3.12455551, -2.29583074, -3.11674198, -3.1059648, -3.12276868, -3.12913136, -3.11933296, -3.1104915, -3.09651776], "learning_rate_decay": [0.9972577, 0.99619402, 0.99605742, 0.99810749, 0.99709124, 0.99712366, 0.99987613, 0.99894172, 0.99982558, 0.99813577, 0.99795127, 0.99850752, 0.99736458, 0.99750859, 0.99726195, 0.99669987, 0.99787069, 0.99801597, 0.99745714, 0.99851344, 0.99688018, 0.99721631, 0.99694906, 0.9963077, 0.99912362, 0.99714819, 0.9977747, 0.99752453, 0.9975269, 0.99758759, 0.99755896, 0.99755689, 0.99752515, 0.99753392, 0.99756747, 0.99753605, 0.99755039, 0.99749839, 0.99756885, 0.99731233, 0.99754918, 0.99758506, 0.99754661, 0.99754615, 0.99754108, 0.99889516, 0.99898604, 0.99887656, 0.99901045, 0.99757011, 0.99770017, 0.99890988, 0.99890829, 0.99891251, 0.99796414, 0.99649549, 0.99625975, 0.99644152, 0.99637485, 0.99614666, 0.99776297, 0.99659592, 0.99880758, 0.99843083, 0.99645781, 0.998478, 0.99831045, 0.99762431, 0.99886592, 0.99937588, 0.99898751, 0.99883019, 0.99788004, 0.99785984, 0.99768995, 0.99787994, 0.99852328, 0.99815376, 0.99792811, 0.99793238, 0.99776882, 0.99779537, 0.99794595, 0.99736743, 0.9979894, 0.99728198, 0.99707333, 0.99823378, 0.99795107, 0.99739074, 0.9977313, 0.99773735, 0.99813158, 0.99778507, 0.99790878, 0.99781359, 0.99812539, 0.99774309, 0.99789687, 0.99791475], "loss": [136639600.0, 156550900.0, 148308400.0, 138521800.0, 143170000.0, Infinity, 139867900.0, Infinity, Infinity, Infinity, 138358200.0, 138050900.0, 137708300.0, 137624300.0, 147629600.0, 138141100.0, 137939800.0, 138175700.0, 229390200.0, 137937900.0, 137303300.0, 137699000.0, 176508800.0, 137747500.0, 137856900.0, 137973200.0, 138739800.0, 137162400.0, 137023100.0, 137163500.0, 139616400.0, 137108800.0, 137677600.0, 137353100.0, 137790300.0, 137096200.0, 136953300.0, 137154400.0, 139298600.0, 137140400.0, 137060500.0, 137078500.0, 137613600.0, 138138000.0, 136682800.0, 137014600.0, 138496400.0, 137171800.0, 137106200.0, 138269300.0, Infinity, 137190300.0, 137061100.0, 137043400.0, 138393100.0, 136686700.0, 137526100.0, 136978200.0, 137083200.0, 137341600.0, 136931200.0, 137019200.0, 141878500.0, 136960400.0, 156393700.0, 136782000.0, 136877500.0, Infinity, 136917900.0, 137057300.0, 136881400.0, 137576700.0, 136610200.0, 136656900.0, 136924700.0, 136753300.0, 136869600.0, 136650300.0, 136667900.0, 136809500.0, 137085600.0, 136705200.0, 136688300.0, 136692700.0, 136744700.0, Infinity, 136864800.0, 136719300.0, 137167200.0, 137098800.0, 136564400.0, 136944500.0, 332054800.0, 136608900.0, 136808400.0, 137081200.0, 136941400.0, 136671700.0, 136653200.0, 136637800.0], "iter_time": [4.64916229e-05, 6.05583191e-05, 5.4359436e-05, 4.50611115e-05, 5.29289246e-05, 4.79221344e-05, 5.74588776e-05, 5.03063202e-05, 4.76837158e-05, 4.33921814e-05, 0.0311481953, 0.0252599716, 0.0186953545, 0.0247642994, 0.0233922005, 0.0231437683, 0.022674799, 0.02247262, 0.0207109451, 0.0229158401, 0.0228827, 0.0255203247, 0.0243296623, 0.0243909359, 0.0211386681, 0.0194420815, 0.0204856396, 0.0279169083, 0.0218608379, 0.0281968117, 0.0175042152, 0.0245676041, 0.0198428631, 0.0255377293, 0.0234184265, 0.0252432823, 0.0249269009, 0.0282561779, 0.0195479393, 0.0306329727, 0.0295426846, 0.0256693363, 0.0254600048, 0.0218658447, 0.0226676464, 0.0262589455, 0.0273509026, 0.0261194706, 0.0220763683, 0.0292015076, 0.0280938148, 0.024358511, 0.0261034966, 0.0231721401, 0.0242505074, 0.0257639885, 0.0237002373, 0.0285210609, 0.0250592232, 0.0264146328, 0.0262284279, 0.0279052258, 6.41345978e-05, 0.0296828747, 6.1750412e-05, 0.0297336578, 0.0251207352, 0.0261151791, 0.0250935555, 0.0257101059, 0.0212509632, 0.027128458, 0.0262606144, 0.0335521698, 0.0267527103, 0.0280687809, 0.02643466, 0.0278189182, 0.0283675194, 0.024356842, 0.0272734165, 0.0281202793, 0.0279524326, 0.0275728703, 0.0266804695, 5.91278076e-05, 0.0221064091, 0.0273985863, 0.0261602402, 0.0296683311, 0.0306434631, 0.0278105736, 4.76837158e-05, 0.0185320377, 0.0272259712, 0.0222270489, 0.0256929398, 0.0200390816, 0.0245301723, 0.0294487476]}, "bigblue3": {"RePlAce_LOWER_PCOF": [0.90391076, 0.93023471, 0.91460775, 0.9144946, 0.92304681, 0.92355597, 0.90282248, 0.94593012, 0.94262412, 0.93539891, 0.94205763, 0.92778659, 0.93343002, 0.92698495, 0.93093159, 0.92191118, 0.92095814, 0.93147965, 0.94731676, 0.9262507, 0.92003828, 0.92936064, 0.94768552, 0.9436934, 0.91268773, 0.90417587, 0.9676323, 0.97900078, 0.97221971, 0.94797832, 0.98935113, 0.9051037, 0.98908452, 0.96807519, 0.91833092, 0.91914231, 0.92065909, 0.97670549, 0.90103383, 0.91877657, 0.95651097, 0.90099391, 0.96217803, 0.92039654, 0.90526715, 0.90275061, 0.91942574, 0.92100435, 0.91837755, 0.91880264, 0.92064048, 0.92112612, 0.97855215, 0.97759984, 0.92045662, 0.90338233, 0.90675222, 0.91046431, 0.91209059, 0.91180258, 0.9702897, 0.97468008, 0.98242349, 0.92391218, 0.94442224, 0.98023707, 0.96236552, 0.98489721, 0.97757449, 0.97917895, 0.9889587, 0.97033471, 0.98227185, 0.98701346, 0.98473167, 0.975259, 0.97714834, 0.96910485, 0.98370636, 0.97881036, 0.97709194, 0.96349368, 0.976707, 0.97174484, 0.97738676, 0.97929547, 0.97038403, 0.96139434, 0.95561996, 0.96577912, 0.94962373, 0.96491518, 0.96611062, 0.96531047, 0.95417211, 0.95755906, 0.97106658, 0.97610164, 0.97662223, 0.97295548], "RePlAce_UPPER_PCOF": [1.05959847, 1.11520955, 1.03387062, 1.06021256, 1.01926959, 1.0520413, 1.08785022, 1.10015053, 1.05070981, 1.07164069, 1.04868153, 1.04603747, 1.04965473, 1.02132533, 1.07031246, 1.0665332, 1.04638034, 1.04621149, 1.04704737, 1.04761485, 1.04898811, 1.04621735, 1.04687451, 1.0469334, 1.0464311, 1.05005131, 1.04714601, 1.04674136, 1.02626741, 1.0376505, 1.0458804, 1.04985155, 1.04682122, 1.04666152, 1.04975268, 1.04925693, 1.04993058, 1.04543389, 1.04972576, 1.05034973, 1.05028344, 1.04805593, 1.04667015, 1.04881417, 1.05015361, 1.05076483, 1.05057125, 1.05055857, 1.05008505, 1.05077471, 1.04996812, 1.08050717, 1.11006905, 1.05652364, 1.05109587, 1.04945961, 1.049412, 1.05049079, 1.04602983, 1.04574448, 1.04573634, 1.04856841, 1.04290126, 1.13573581, 1.09003692, 1.04817458, 1.04771224, 1.0486107, 1.04840661, 1.04325496, 1.04477523, 1.04122406, 1.04040425, 1.03973073, 1.04377216, 1.04687568, 1.04548227, 1.04621114, 1.04882619, 1.03742504, 1.04032463, 1.03773715, 1.0360636, 1.05199974, 1.03786723, 1.04281436, 1.04411619, 1.04477367, 1.04490406, 1.04809875, 1.04693492, 1.04697482, 1.04566041, 1.04606264, 1.04693487, 1.04494632, 1.04791893, 1.04807129, 1.04823096, 1.04947601], "density_weight": [-5.41121125, -3.36005551, -3.07709193, -5.63462263, -2.65718982, -2.30000381, -5.74388484, -1.6635751, -4.9055689, -4.56036339, -4.62680059, -4.37071005, -4.29707307, -4.56060988, -4.26325531, -4.15309992, -4.32520938, -4.35969229, -4.35016536, -4.3570143, -4.28954388, -4.35909799, -4.3419968, -4.34335128, -4.34065295, -4.27218485, -4.16888408, -4.27397698, -1.29715176, -2.08205698, -4.20735845, -4.31138958, -4.27445521, -4.21737461, -4.2684471, -4.28407069, -4.32363261, -5.56134007, -4.25947687, -5.54964833, -4.25977596, -4.22182288, -4.21245182, -4.3016346, -4.24596917, -4.29130975, -5.60408287, -4.17563737, -5.57038246, -5.61084322, -4.22127932, -3.11415448, -2.9378653, -5.73465266, -4.25049121, -4.28568646, -4.26967163, -4.26805505, -5.40616955, -5.50337294, -5.37818268, -5.48550979, -5.37244882, -2.21659707, -3.45361218, -5.8024503, -4.90928299, -5.45998574, -4.32013207, -4.97692304, -4.96747586, -4.59922476, -5.63676881, -4.3373609, -4.20099247, -2.8680012, -3.8828551, -3.60852641, -3.97789455, -5.13730551, -3.55069816, -3.51663058, -2.87470659, -4.98064757, -4.38971285, -2.56091765, -3.30482621, -5.51895095, -5.96948531, -4.65878474, -5.06483872, -5.33820141, -5.47839435, -5.46158237, -5.47284429, -5.47195349, -5.40650377, -5.473145, -5.47107392, -5.46697338], "gamma": [2.42197512, 2.26223735, 3.21684556, 3.25426228, 2.8973853, 2.48419182, 2.00776178, 2.93894101, 3.69365608, 3.23748147, 3.40670279, 4.05428585, 4.29402584, 4.09572675, 4.04202919, 4.5185798, 4.02350253, 4.06840087, 4.04585963, 4.04619169, 4.25643407, 4.13001003, 4.05596634, 4.11842397, 4.12375386, 4.3797467, 4.25826282, 4.26486513, 1.31282835, 2.66598194, 4.02495753, 4.34849124, 4.28753371, 4.26221521, 4.29254282, 4.27550561, 4.31485757, 3.45909334, 4.31550302, 3.19731772, 4.37278725, 4.29542906, 4.06265574, 4.31818869, 4.30311437, 4.32608467, 3.20392867, 4.29531228, 3.19877032, 3.19458652, 4.29004531, 2.17616431, 1.12930011, 1.01744432, 4.29150031, 4.32561202, 4.28398934, 4.29965437, 2.68992465, 1.03390792, 2.66071962, 2.67151131, 2.64609093, 1.34788855, 2.937268, 2.25004948, 2.79927667, 2.64117509, 2.83672325, 2.81318618, 2.85426943, 2.64624772, 2.68618547, 2.73810278, 2.76887929, 2.75528335, 2.76473085, 2.63200601, 2.78015939, 2.74915632, 2.72510586, 2.67257789, 2.85840295, 2.588881, 2.70890281, 2.72949259, 2.75653395, 2.68807622, 2.74995969, 2.68953184, 2.8082798, 2.78089505, 2.70740285, 2.75925586, 2.79577631, 2.87322021, 2.65519487, 2.64101794, 2.73035811, 2.61842387], "learning_rate": [-3.18451922, -3.98116425, -3.221037, -3.62832419, -3.96816791, -2.00162756, -2.52527774, -3.21543506, -2.06747517, -3.94033643, -2.14617169, -3.12740785, -3.08662405, -3.14651545, -3.06517352, -3.12315088, -3.12901255, -3.09788533, -3.09486238, -3.09668463, -3.09711116, -3.08244843, -3.12075161, -3.09556001, -3.10402026, -3.09840807, -3.1147788, -3.09694312, -2.69502278, -3.04265287, -3.11521063, -3.08690443, -3.10360411, -3.07874669, -3.05656157, -3.03491284, -2.99472528, -2.57081758, -3.00868891, -2.86536885, -2.98894943, -3.03297362, -3.1098754, -3.01867193, -3.04110413, -3.01055679, -2.84764765, -3.08041203, -2.84923834, -2.83401585, -3.03987201, -2.4163787, -3.10344821, -2.72683445, -3.04105479, -3.03107643, -3.03307046, -3.05188043, -2.71515076, -2.71527385, -2.7038973, -2.76103325, -2.78462647, -3.18586851, -3.92916651, -2.6721891, -2.85119683, -2.80681393, -2.89114411, -2.73853276, -2.78024924, -2.62636568, -2.70419055, -2.72832569, -2.7968293, -2.75414153, -2.78844592, -2.83982593, -2.79135897, -2.74602858, -2.79905248, -2.78638304, -2.73897791, -2.78698615, -2.72282151, -2.83093199, -2.78893449, -2.73112959, -2.68664387, -2.71390919, -2.82484724, -2.85138346, -2.75354048, -2.7816397, -2.84528426, -2.83459677, -2.74918429, -2.73163496, -2.7437552, -2.76119143], "learning_rate_decay": [0.99888441, 0.99728256, 0.99723794, 0.99947243, 0.99690053, 0.99996378, 0.99889752, 0.99739283, 0.99678186, 0.99718559, 0.99670677, 0.99788538, 0.99785284, 0.9979169, 0.99783963, 0.99787183, 0.99780503, 0.99786299, 0.9977065, 0.99787968, 0.99798617, 0.99788761, 0.9977645, 0.99791565, 0.99794356, 0.99795956, 0.9978258, 0.99784076, 0.99811721, 0.99695056, 0.99785713, 0.99797721, 0.99783919, 0.99787195, 0.997836, 0.99788396, 0.99774584, 0.99723324, 0.99789941, 0.99889929, 0.99788153, 0.99788604, 0.99818322, 0.99792029, 0.99790055, 0.9978737, 0.99890092, 0.99783452, 0.9989139, 0.99892322, 0.99789309, 0.99742138, 0.99644169, 0.99820244, 0.99783593, 0.99786239, 0.99790479, 0.99788803, 0.99918017, 0.99918101, 0.99920179, 0.9992862, 0.99922802, 0.9997088, 0.99937085, 0.99898327, 0.99970915, 0.99886641, 0.99966647, 0.99919101, 0.99916716, 0.9996091, 0.99920273, 0.9992658, 0.99916229, 0.99922721, 0.99921023, 0.99914277, 0.99922017, 0.99918833, 0.99924847, 0.99918775, 0.99918549, 0.99922261, 0.99926133, 0.9992957, 0.99924105, 0.99921937, 0.99916593, 0.99915671, 0.99968166, 0.99967694, 0.99918998, 0.99964679, 0.99962058, 0.99981638, 0.99934713, 0.99946995, 0.99956931, 0.9994363], "loss": [304304900.0, Infinity, 306390300.0, Infinity, Infinity, 311034700.0, 339782800.0, 430487600.0, 304289700.0, Infinity, 305214000.0, 303438600.0, 303165600.0, 1816485000.0, 326821100.0, 327694300.0, 303474600.0, 303553800.0, 303483100.0, 303606800.0, 303197400.0, 303470800.0, 303399600.0, 303530600.0, 303376200.0, 303125400.0, 303443300.0, 303015000.0, 315325400.0, 306593900.0, 305077200.0, 303329700.0, 304845100.0, 303493700.0, 303080300.0, 303142700.0, 303315300.0, 304047000.0, 303106700.0, 303803200.0, 303183000.0, 303878200.0, 303607500.0, 303682600.0, 303109200.0, 303190300.0, 303886800.0, 303257700.0, 303630900.0, 303931500.0, 303193100.0, 348973000.0, 1271262000.0, 317356200.0, 303456000.0, 303327700.0, 303122000.0, 303238900.0, 302123800.0, 313470100.0, 302066100.0, 302010500.0, 302365700.0, 404183800.0, Infinity, 304176800.0, 302261700.0, 342034100.0, 304435400.0, 302685300.0, 304388300.0, 303010800.0, 303800300.0, 301937100.0, 302895000.0, 307963800.0, 302815800.0, 303779200.0, 307155800.0, 309540400.0, 302513200.0, 302820200.0, 303990200.0, 303913300.0, 304904300.0, 306574400.0, 303381800.0, 302151100.0, 302873300.0, 302890000.0, 302275500.0, 302027400.0, 301891300.0, 302111400.0, 301850200.0, 302274000.0, 301982500.0, 302026800.0, 302635300.0, 302144800.0], "iter_time": [4.67300415e-05, 5.10215759e-05, 4.62532043e-05, 4.36306e-05, 4.76837158e-05, 5.22136688e-05, 4.26769257e-05, 8.20159912e-05, 4.41074371e-05, 5.2690506e-05, 0.0270447731, 0.0229756832, 0.0241348743, 0.0196979046, 0.024671793, 0.0208702087, 0.0242884159, 0.0270152092, 0.0252292156, 0.020234108, 0.0240404606, 0.0209023952, 0.023348093, 0.0248651505, 0.0234277248, 0.0223293304, 0.0269284248, 0.0216627121, 6.67572021e-05, 0.0260224342, 0.0254724026, 0.025219202, 0.026828289, 0.0236730576, 0.026062727, 0.0220420361, 0.0244715214, 0.026465416, 0.0210101604, 0.0296325684, 0.0262732506, 0.0245919228, 0.0278041363, 0.0279347897, 0.023311615, 0.0288257599, 0.0200557709, 0.0292026997, 0.0273365974, 0.0234549046, 0.0289165974, 5.24520874e-05, 5.7220459e-05, 5.17368317e-05, 0.0264518261, 0.024769783, 0.0273864269, 0.02425313, 0.0222764015, 0.0271384716, 0.0225315094, 0.0230140686, 0.0272800922, 5.98430634e-05, 5.86509705e-05, 0.0254416466, 0.0261676311, 0.0298523903, 0.0280776024, 0.0265805721, 0.0222253799, 0.0268089771, 0.0301988125, 0.0276591778, 0.027131319, 0.0310206413, 0.0260334015, 0.0281982422, 0.0237584114, 0.0247783661, 0.0215241909, 0.0248477459, 0.019169569, 0.0243496895, 0.0261120796, 0.0290434361, 0.0277574062, 0.028236866, 0.0249474049, 0.0278794765, 0.0253617764, 0.0257411003, 0.0298876762, 0.0275640488, 0.0192172527, 0.0282511711, 0.0241382122, 0.0225050449, 0.0256333351, 0.0329926014]}, "bigblue4": {"RePlAce_LOWER_PCOF": [0.9062138, 0.97596041, 0.94794188, 0.94712474, 0.94754791, 0.98864177, 0.93893871, 0.98690503, 0.98620731, 0.98634534, 0.90817546, 0.92640539, 0.96825531, 0.96720998, 0.96610129, 0.97141469, 0.97444504, 0.97940053, 0.92146223, 0.97380681, 0.98981096, 0.96166809, 0.90307853, 0.97969064, 0.96698772, 0.97296241, 0.97178698, 0.9729524, 0.97214041, 0.96724603, 0.97778404, 0.9733557, 0.97086583, 0.97074804, 0.97342254, 0.97399862, 0.97154574, 0.97531119, 0.97431424, 0.9726989, 0.97324516, 0.97396437, 0.96363626, 0.97462063, 0.9601318, 0.97386547, 0.94010901, 0.9709269, 0.91685558, 0.90153479, 0.97184061, 0.97872091, 0.93979022, 0.97735709, 0.94415612, 0.9532869, 0.98090559, 0.97254752, 0.95983367, 0.96240396, 0.96357223, 0.95555003, 0.97205446, 0.96194371, 0.95739964, 0.98273123, 0.98839784, 0.94144656, 0.9614729, 0.95838847, 0.9787257, 0.9716621, 0.98285898, 0.98084195, 0.94668079, 0.92942145, 0.95084835, 0.98532029, 0.94790029, 0.94652831, 0.9682347, 0.92728381, 0.94989365, 0.94117279, 0.94707869, 0.96968973, 0.93227721, 0.95147204, 0.93536792, 0.95919353, 0.93722236, 0.9425027, 0.98378482, 0.93929847, 0.9193137, 0.9783954, 0.97999182, 0.92144787, 0.92189038, 0.92303118], "RePlAce_UPPER_PCOF": [1.10212988, 1.10122992, 1.01933726, 1.0233274, 1.03040496, 1.11755742, 1.07976696, 1.01561832, 1.08658062, 1.06491709, 1.14494789, 1.10599521, 1.04541777, 1.02574217, 1.04696787, 1.05756697, 1.04820167, 1.03961961, 1.04554633, 1.0480682, 1.02181165, 1.0460689, 1.04525434, 1.04637219, 1.0455477, 1.04740576, 1.04736697, 1.0453641, 1.04585682, 1.04624742, 1.04646697, 1.04757271, 1.04769173, 1.04750179, 1.04686579, 1.0473635, 1.04746614, 1.04738462, 1.04744167, 1.04777889, 1.04810853, 1.04941644, 1.0312759, 1.04727972, 1.04650708, 1.04876986, 1.03150094, 1.10315896, 1.02985655, 1.13043018, 1.02197352, 1.04327855, 1.03288918, 1.04835771, 1.03441343, 1.03245222, 1.0256746, 1.04707981, 1.04811122, 1.04615216, 1.0473146, 1.04837804, 1.0482219, 1.04892424, 1.04920235, 1.04753019, 1.04817573, 1.04458564, 1.0480144, 1.04812244, 1.04486512, 1.04318366, 1.04576032, 1.04844826, 1.04817165, 1.04607851, 1.04465112, 1.04806248, 1.04222401, 1.04956984, 1.05050793, 1.04544167, 1.04346786, 1.04492492, 1.04552682, 1.04709119, 1.04520292, 1.04604705, 1.04760505, 1.03944042, 1.04683259, 1.03071193, 1.04762469, 1.04592151, 1.05066001, 1.04274394, 1.04294042, 1.04951587, 1.0545979, 1.04254125], "density_weight": [-1.40572738, -5.91589144, -2.35967606, -3.68348903, -3.55539138, -2.22270801, -3.03366186, -3.63830553, -3.15762933, -2.28212779, -5.30181614, -1.63173816, -5.36442623, -5.3788577, -5.36836264, -5.30709434, -5.46887493, -4.29364516, -5.37141512, -5.4933749, -1.32473443, -5.49318891, -5.39722769, -5.4090673, -5.40557065, -5.44497374, -5.44797409, -5.41905915, -5.40988301, -5.38734937, -5.49049755, -5.4929863, -5.41297088, -5.42431017, -5.4622154, -5.42177707, -5.42646007, -5.44757369, -5.45795966, -5.44984314, -5.44609947, -5.45805041, -2.18962698, -5.4857102, -5.42200932, -5.42421203, -1.05957933, -3.37238255, -2.64241266, -1.79488401, -1.2764006, -4.17695218, -2.33252323, -4.07411913, -1.27822861, -1.99119722, -1.54309627, -5.06670915, -5.13430909, -5.52710686, -4.93247887, -5.05908861, -5.79859397, -5.58360243, -4.65918097, -5.27902043, -5.64267056, -4.73096094, -4.42140684, -5.33747625, -4.64982092, -4.73758266, -5.07444665, -4.82025172, -5.59980836, -4.3855696, -4.44150987, -5.50140006, -4.71017365, -4.43434724, -5.00398586, -4.33741817, -3.92992625, -3.75795004, -5.13652048, -4.14680799, -4.32268753, -4.30020793, -4.33733019, -3.8180428, -4.33291695, -1.40578887, -4.23373529, -4.36999749, -5.55071993, -4.24835377, -4.07101456, -5.22452881, -5.30396264, -3.48488637], "gamma": [4.10664236, 3.2094591, 4.17941248, 3.88296067, 1.30385449, 4.69703438, 2.68591972, 4.64282808, 2.25773976, 1.34577343, 1.13159696, 4.19126693, 2.66705164, 2.76238456, 2.63948201, 2.63628662, 2.67580373, 2.7096276, 2.73044884, 2.67525355, 3.78356241, 2.68678547, 2.69301832, 2.68880712, 2.67043586, 2.67705715, 2.67174175, 2.66547948, 2.63906393, 2.6770701, 2.64299103, 2.71127026, 2.63847491, 2.6760066, 2.63412763, 2.68286242, 2.67777942, 2.64400815, 2.6822089, 2.64605206, 2.59233495, 2.6526345, 1.16106913, 2.64661558, 2.82024492, 2.62205448, 4.31393056, 1.75867936, 4.20654798, 1.79879968, 4.6928616, 4.15417183, 3.59095466, 2.20227288, 3.12695023, 4.49426482, 4.41329071, 3.80018808, 4.19383146, 4.46517775, 3.853847, 4.22894207, 4.34139973, 4.16597971, 4.16818754, 4.07265306, 4.06468411, 4.45511643, 3.89635483, 4.24273877, 3.93581763, 3.91806051, 3.93400658, 3.75995188, 4.36175997, 3.89975615, 3.94658702, 3.89682228, 3.97864948, 4.05607178, 4.36278475, 4.08375784, 3.98234191, 4.00329283, 3.94483179, 4.18439148, 4.0604551, 4.00146316, 4.11900314, 4.27738622, 4.11441864, 4.28617454, 4.22980117, 4.0164147, 3.19686574, 4.11943566, 4.09803436, 3.93598336, 4.29786718, 3.99699612], "learning_rate": [-2.91695193, -2.32168379, -3.85147527, -3.42806245, -2.93084028, -2.78171807, -3.32342586, -3.87932453, -2.68593392, -3.96679107, -2.83451029, -2.98742793, -2.71623531, -2.6964225, -2.71535147, -2.6179958, -2.73701108, -2.75807333, -2.68644549, -2.73456538, -2.72015183, -2.76572288, -2.77056155, -2.72834776, -2.76448844, -2.7447206, -2.74310722, -2.71014567, -2.67658385, -2.71887618, -2.76085236, -2.74308032, -2.7248452, -2.74470198, -2.73339955, -2.73697272, -2.73416307, -2.72306284, -2.73457851, -2.7303157, -2.74228177, -2.73713106, -3.12892434, -2.74255609, -2.84955967, -2.73550363, -2.75517103, -3.58161547, -2.77430937, -2.70798079, -2.67657439, -3.10556438, -2.69185148, -2.66679092, -2.72403342, -2.81447348, -2.77724633, -2.80731882, -2.75563929, -2.78572078, -2.69878082, -2.66905835, -2.63840951, -2.66083766, -2.56309503, -2.91489592, -2.50334469, -2.70640632, -2.73939324, -2.91905073, -2.80922272, -2.68649996, -2.76017754, -2.68231795, -2.74500089, -3.13458045, -3.12276802, -3.02124998, -2.55985215, -2.39030145, -2.83250114, -3.12458379, -2.84731708, -2.89402614, -3.28882135, -3.11209498, -3.11299074, -3.1026148, -3.09526787, -2.79881837, -3.11895692, -3.00597155, -3.12131091, -3.1032956, -2.82869103, -3.10034865, -2.94209584, -3.31088648, -3.31768591, -2.65027605], "learning_rate_decay": [0.99960263, 0.99749119, 0.99853869, 0.99656349, 0.99633278, 0.9979347, 0.99927116, 0.99863639, 0.99928646, 0.99918176, 0.99655441, 0.99976513, 0.99908692, 0.99892332, 0.99928256, 0.99916096, 0.99929543, 0.99935836, 0.99898306, 0.99934107, 0.99690025, 0.9990141, 0.99942104, 0.99927467, 0.99914049, 0.99959045, 0.99943073, 0.99915017, 0.99926945, 0.99928106, 0.99931096, 0.9993352, 0.99937883, 0.99939111, 0.99934902, 0.99927433, 0.99927259, 0.99929194, 0.999317, 0.99932934, 0.99931119, 0.99934376, 0.99624217, 0.99930062, 0.99976609, 0.99932591, 0.99683585, 0.99806528, 0.99755753, 0.99994305, 0.99650266, 0.99794593, 0.99685693, 0.99723909, 0.99674478, 0.99756721, 0.997045, 0.99803993, 0.99839171, 0.99898941, 0.99819583, 0.99825707, 0.99846971, 0.9983853, 0.99815481, 0.99799504, 0.99858071, 0.99858277, 0.99785642, 0.99829096, 0.99815367, 0.99826133, 0.99813843, 0.9980289, 0.99839045, 0.9977649, 0.9977842, 0.99807198, 0.99822917, 0.99802613, 0.9982781, 0.9977814, 0.99777002, 0.9973975, 0.99772509, 0.99786242, 0.99772664, 0.99784184, 0.99782464, 0.99780618, 0.99781283, 0.99694646, 0.99787891, 0.99785351, 0.99891174, 0.99786982, 0.99782931, 0.99771062, 0.99788506, 0.9976097], "loss": [805254300.0, 1478993000.0, Infinity, Infinity, 1150782000.0, 1167743000.0, 782640100.0, Infinity, 1043767000.0, Infinity, 909051900.0, 818330600.0, 748910300.0, 2965480000.0, 744946600.0, 744995700.0, 743395600.0, 745079500.0, 751698000.0, 743270800.0, 894164000.0, 750606500.0, 754609900.0, 743645300.0, 750605300.0, 743713200.0, 743591700.0, 744389500.0, 744143900.0, 747436400.0, 743912600.0, 744055800.0, 743346400.0, 743941400.0, 743637700.0, 743414500.0, 743709200.0, 743395100.0, 743592500.0, 743329800.0, 743512300.0, 744581900.0, 762646100.0, 743780600.0, 746658400.0, 744257200.0, 740796700.0, Infinity, 767689300.0, 988386700.0, 837954900.0, 741656300.0, 746735700.0, 744794800.0, 744957000.0, 743692300.0, 775572200.0, 741474500.0, 741087000.0, 743428600.0, 741086200.0, 740806500.0, 741818600.0, 742365400.0, 741888500.0, 742362500.0, 742450400.0, 742292600.0, 742398100.0, 742251800.0, 741869600.0, 743732700.0, 741814500.0, 743752300.0, 742554500.0, 741692600.0, 740607100.0, 742338600.0, 746822800.0, 742591700.0, 742649100.0, 741801200.0, 741658000.0, 742528100.0, 743780700.0, 742808100.0, 741695000.0, 741843800.0, 741969000.0, 744391400.0, 741964800.0, 742070100.0, 743268000.0, 741742100.0, 742017700.0, 741068000.0, 742001500.0, 740773400.0, 742196800.0, Infinity], "iter_time": [4.69684601e-05, 4.83989716e-05, 4.55379486e-05, 4.95910645e-05, 5.50746918e-05, 5.67436218e-05, 4.62532043e-05, 5.14984131e-05, 4.62532043e-05, 4.88758087e-05, 5.65052032e-05, 0.0251889229, 0.0250768661, 0.0222907066, 0.022382021, 0.0217785835, 0.0235791206, 0.021335125, 0.0202121735, 0.0249857903, 0.0263590813, 0.0252730846, 0.0231785774, 0.0231335163, 0.0174660683, 0.0221824646, 0.0224580765, 0.020955801, 0.0233387947, 0.0219967365, 0.0286729336, 0.027762413, 0.0227127075, 0.0189187527, 0.0249710083, 0.0235407352, 0.0258457661, 0.0238542557, 0.0260190964, 0.0192546844, 0.0258255005, 0.0289003849, 5.22136688e-05, 0.0248599052, 0.025996685, 0.0200810432, 0.0256412029, 7.67707825e-05, 0.0225160122, 8.893013e-05, 0.0259888172, 0.0239846706, 0.0248405933, 0.021697998, 0.0233528614, 0.0204312801, 0.0251922607, 0.0261340141, 0.0275557041, 0.0236010551, 0.0229198933, 0.0265784264, 0.0232789516, 0.0236837864, 0.0215051174, 0.0242238045, 0.0241165161, 0.0243833065, 0.0224728584, 0.0247411728, 0.0228409767, 0.0310013294, 0.0217273235, 0.0270564556, 0.0254914761, 0.0270044804, 0.0261147022, 0.0292234421, 0.0323643684, 0.0196919441, 0.0227169991, 0.0294561386, 0.0236575603, 0.0189602375, 0.0245001316, 0.0287640095, 0.0278308392, 0.0174918175, 0.0241611004, 0.0296604633, 0.026396513, 0.0267598629, 0.0211732388, 0.0320618153, 0.0267062187, 0.0305404663, 0.0233807564, 0.0278627872, 0.0216653347, 0.0283112526]}}